-9.899080544710159302e-02
1.974656730890274048e-01
2.842518985271453857e-01
-1.630498319864273071e-01
-1.700898855924606323e-01
2.073403298854827881e-01
-1.237204074859619141e-01
-2.589340507984161377e-01
1.246422603726387024e-01
-2.620355486869812012e-01
3.332449197769165039e-01
8.348473906517028809e-02
-2.613454759120941162e-01
2.738522589206695557e-01
2.175847142934799194e-01
4.923023656010627747e-02
7.207435369491577148e-02
8.168316632509231567e-02
-2.372461557388305664e-01
-2.641433179378509521e-01
2.342687845230102539e-01
-3.231073021888732910e-01
-3.710678219795227051e-01
2.935447692871093750e-01
2.523531317710876465e-01
8.730319887399673462e-02
3.513270318508148193e-01
2.076389640569686890e-01
8.488200604915618896e-02
1.898255944252014160e-01
-3.722688853740692139e-01
1.186481043696403503e-01
-2.630105912685394287e-01
8.134840987622737885e-03
1.082998216152191162e-01
-2.218028008937835693e-01
1.115140467882156372e-01
3.746775984764099121e-01
-3.251136839389801025e-01
3.448671847581863403e-02
8.939263969659805298e-02
-1.946257948875427246e-01
4.005851689726114273e-03
-9.840301424264907837e-02
-2.030838131904602051e-01
-5.531787127256393433e-02
-2.371563762426376343e-01
-3.126744329929351807e-01
1.572503149509429932e-01
3.751288056373596191e-01
2.194574475288391113e-01
-2.632778286933898926e-01
2.211889028549194336e-01
-2.699878811836242676e-01
3.099540174007415771e-01
-1.752091497182846069e-01
-1.845372915267944336e-01
-4.996449500322341919e-02
-1.091495081782341003e-01
-2.513378560543060303e-01
-2.556920349597930908e-01
3.416366279125213623e-01
1.629676073789596558e-01
1.889668703079223633e-01
3.258321285247802734e-01
-1.328413933515548706e-01
3.428882658481597900e-01
-3.312020897865295410e-01
-2.639001309871673584e-01
-9.053877741098403931e-02
-2.181016802787780762e-01
-7.464467780664563179e-04
-2.954191267490386963e-01
-8.553268015384674072e-02
-2.919308841228485107e-02
-7.108520716428756714e-02
1.670704185962677002e-01
-4.718674719333648682e-02
3.431827723979949951e-01
-3.354181349277496338e-01
-5.095500126481056213e-02
-8.192427456378936768e-02
-3.787618577480316162e-01
2.426867373287677765e-02
2.104344964027404785e-01
-3.754135370254516602e-01
-1.114914193749427795e-01
-1.357281394302845001e-02
4.053089069202542305e-04
2.563180588185787201e-02
2.429308146238327026e-01
-6.318831443786621094e-02
6.432376056909561157e-02
2.033696174621582031e-01
-3.018293082714080811e-01
3.480134308338165283e-01
3.020068407058715820e-01
-2.512731552124023438e-01
-2.472834140062332153e-01
3.059547245502471924e-01
-9.417781978845596313e-02
4.590919241309165955e-02
1.238726750016212463e-01
-1.761913895606994629e-01
-2.920804731547832489e-02
-1.720414459705352783e-01
9.615008533000946045e-02
3.135550650767982006e-05
2.404673844575881958e-01
-2.840485274791717529e-01
-1.763773411512374878e-01
-1.674119085073471069e-01
-1.504293531179428101e-01
8.075734227895736694e-02
1.153730601072311401e-01
-2.915404438972473145e-01
1.157701462507247925e-01
-3.543187975883483887e-01
4.256992787122726440e-02
4.553399514406919479e-03
-3.933428972959518433e-02
-2.582557797431945801e-01
2.776219546794891357e-01
4.715078696608543396e-02
9.510236233472824097e-02
1.332195550203323364e-01
-8.067134767770767212e-02
5.295858904719352722e-02
4.974754899740219116e-02
2.754141986370086670e-01
-3.545284569263458252e-01
1.579380929470062256e-01
-2.164771854877471924e-01
3.470821976661682129e-01
-3.673802912235260010e-01
1.874040961265563965e-01
-1.779088973999023438e-01
3.085883259773254395e-01
2.122647762298583984e-01
-2.164356708526611328e-01
2.633134722709655762e-01
-2.460086531937122345e-02
9.249538928270339966e-02
-3.134248256683349609e-01
-1.572021692991256714e-01
3.443755209445953369e-02
2.914080321788787842e-01
1.694663465023040771e-01
3.258711695671081543e-01
2.708779275417327881e-01
