7.723437994718551636e-02
-7.366102072410285473e-04
5.129599198698997498e-02
-2.781122736632823944e-02
-4.940487444400787354e-02
-6.950986385345458984e-02
2.881957404315471649e-02
2.669835649430751801e-02
-7.964997738599777222e-02
-3.968351706862449646e-02
1.207013241946697235e-02
3.751040436327457428e-03
-2.595077455043792725e-02
-6.728298962116241455e-02
-1.987764425575733185e-02
2.474335767328739166e-02
-7.973223179578781128e-02
2.802367089316248894e-03
-2.902663312852382660e-02
-2.669103257358074188e-02
-6.223898008465766907e-02
-6.470327079296112061e-02
-1.841848343610763550e-02
-4.498466104269027710e-02
6.735615432262420654e-02
-6.623171269893646240e-02
-3.457756713032722473e-02
-6.711400300264358521e-02
3.954964131116867065e-02
4.146270826458930969e-02
-8.000916242599487305e-02
-6.526532769203186035e-02
1.410429831594228745e-02
-7.088986039161682129e-02
-1.923240371979773045e-03
-6.340812146663665771e-02
5.584016442298889160e-02
6.611701101064682007e-02
5.437031760811805725e-02
1.206740830093622208e-02
-1.353088486939668655e-02
-2.841478772461414337e-02
7.110136002302169800e-02
-3.272343426942825317e-02
-7.306485623121261597e-02
-5.895698443055152893e-02
4.685294628143310547e-02
-1.741332560777664185e-02
4.505801573395729065e-02
9.905666112899780273e-03
3.385997191071510315e-02
-3.514868766069412231e-02
5.524536222219467163e-02
3.927507251501083374e-02
1.571609638631343842e-02
-6.180897727608680725e-02
4.846208542585372925e-02
-4.332024231553077698e-02
-3.295785561203956604e-02
8.031589537858963013e-02
1.888920553028583527e-03
-4.105101688764989376e-04
3.694820031523704529e-02
7.414121925830841064e-02
1.352398656308650970e-02
4.760649427771568298e-02
1.372899115085601807e-02
5.569699406623840332e-02
1.488518249243497849e-02
2.434094995260238647e-02
3.388129174709320068e-02
7.041216641664505005e-02
-6.743878126144409180e-02
-7.330127060413360596e-02
1.159436535090208054e-02
-7.915022224187850952e-02
-5.985639058053493500e-03
1.551672071218490601e-02
6.083911657333374023e-02
-2.711571753025054932e-02
-7.086027879267930984e-03
-5.111404135823249817e-02
5.072198435664176941e-02
-2.853878773748874664e-02
-7.361364364624023438e-02
-3.431359305977821350e-02
-4.176857881247997284e-03
5.951832979917526245e-02
3.674862533807754517e-02
2.678953297436237335e-02
-5.408620089292526245e-02
2.433759905397891998e-02
-5.914087221026420593e-02
-5.184183642268180847e-02
-3.307190164923667908e-02
-2.978333272039890289e-02
8.009413629770278931e-02
8.133716136217117310e-02
2.561056427657604218e-02
2.231346443295478821e-02
8.299791254103183746e-03
-3.831331059336662292e-02
5.603899061679840088e-02
-5.764506757259368896e-02
-4.152831435203552246e-02
-6.191037967801094055e-02
4.718569293618202209e-02
9.808356873691082001e-03
2.568737603724002838e-02
9.520070627331733704e-03
-3.446351736783981323e-02
1.251617213711142540e-03
-1.355645433068275452e-02
-7.344836834818124771e-03
3.746033832430839539e-02
6.852754205465316772e-02
1.878269948065280914e-02
4.679664596915245056e-02
2.341957576572895050e-02
-3.661429136991500854e-02
-4.307128954678773880e-03
4.621397331357002258e-02
-5.889275297522544861e-02
7.616167515516281128e-02
-6.073582917451858521e-02
-1.230350602418184280e-02
-7.918416708707809448e-02
-7.510259002447128296e-02
-9.341165423393249512e-03
-5.207254365086555481e-02
-2.879567816853523254e-02
1.365181244909763336e-02
-7.530200481414794922e-02
3.372601047158241272e-02
4.531687125563621521e-02
9.485458023846149445e-03
7.393854856491088867e-02
-5.165773327462375164e-04
-8.719397708773612976e-03
-3.671368956565856934e-02
-8.146274834871292114e-02
3.296289965510368347e-02
6.031769886612892151e-02
5.093394592404365540e-02
6.845137476921081543e-02
4.970627278089523315e-02
-4.835014231503009796e-03
-5.474247410893440247e-02
-8.025894314050674438e-02
-7.167964428663253784e-02
