-7.741295546293258667e-02
2.861096560955047607e-01
1.957096159458160400e-01
1.432553380727767944e-01
-1.063527613878250122e-01
1.648169308900833130e-01
2.609460949897766113e-01
-2.527340650558471680e-01
-2.194228917360305786e-01
1.623473018407821655e-01
-1.966753304004669189e-01
-1.103741079568862915e-01
-2.375534325838088989e-01
-2.751284241676330566e-01
-2.211308926343917847e-01
-2.467415779829025269e-01
-1.020967662334442139e-01
-2.467749416828155518e-01
-7.044699788093566895e-02
1.547547578811645508e-01
2.186093181371688843e-01
-1.297095566987991333e-01
-2.827497422695159912e-01
1.547149568796157837e-02
-3.561525419354438782e-02
4.991126060485839844e-02
2.391631603240966797e-01
2.773410975933074951e-01
-3.161599338054656982e-01
-2.851645052433013916e-01
-2.142832875251770020e-01
3.000269532203674316e-01
2.221460789442062378e-01
8.339209854602813721e-02
-2.202453762292861938e-01
1.910747885704040527e-01
7.370220869779586792e-02
1.208400875329971313e-01
9.730651229619979858e-02
5.746102333068847656e-02
1.708424985408782959e-01
-7.062781136482954025e-03
-3.178167045116424561e-01
6.308897584676742554e-02
8.178806304931640625e-02
3.430780768394470215e-02
-6.787281483411788940e-02
-4.153608158230781555e-02
-2.221412062644958496e-01
-2.318702191114425659e-01
-2.693787813186645508e-01
-2.254643291234970093e-01
-1.910921633243560791e-01
2.830521762371063232e-01
2.545893192291259766e-01
-2.766785919666290283e-01
-3.047462105751037598e-01
-9.267681837081909180e-02
1.947221010923385620e-01
4.820828512310981750e-02
-2.433248162269592285e-01
-1.908592879772186279e-01
3.430501744151115417e-02
-3.058932721614837646e-01
1.435460597276687622e-01
-1.911616325378417969e-01
-2.871576249599456787e-01
5.798263475298881531e-02
1.034597307443618774e-01
-7.364289462566375732e-02
1.432266458868980408e-02
-6.543727964162826538e-02
2.069053500890731812e-01
-1.962849944829940796e-01
-3.146021664142608643e-01
1.200936585664749146e-01
2.601178884506225586e-01
1.510073691606521606e-01
-3.045842349529266357e-01
2.938322424888610840e-01
2.275850325822830200e-01
1.355261951684951782e-01
-1.760090440511703491e-01
2.661324851214885712e-02
-1.394462436437606812e-01
1.224286556243896484e-01
5.598223954439163208e-02
9.290021657943725586e-02
2.029790133237838745e-01
-1.893448680639266968e-01
-2.236724346876144409e-01
-2.144746482372283936e-01
-1.229721009731292725e-01
1.672483533620834351e-01
1.070492863655090332e-01
-1.517944782972335815e-01
6.263516098260879517e-02
1.737285703420639038e-01
2.946069836616516113e-01
1.385189294815063477e-01
-5.201331526041030884e-02
1.520676612854003906e-01
9.084333479404449463e-02
3.182425200939178467e-01
-2.481876015663146973e-01
-4.373221844434738159e-02
-5.441693216562271118e-02
1.310557872056961060e-01
-1.271779090166091919e-01
-2.784980535507202148e-01
1.336251795291900635e-01
8.678513765335083008e-02
2.134254015982151031e-02
2.563698291778564453e-01
-2.640805244445800781e-01
1.080373581498861313e-02
-1.774463504552841187e-01
-1.796466857194900513e-01
-3.274255096912384033e-01
-1.883755177259445190e-01
1.082299277186393738e-01
3.121395707130432129e-01
-2.940735816955566406e-01
2.273102998733520508e-01
3.016207814216613770e-01
-2.550301551818847656e-01
1.845689862966537476e-01
-1.690407544374465942e-01
-1.164784468710422516e-02
-2.615709602832794189e-01
-1.833410263061523438e-01
-2.884076535701751709e-01
1.721290051937103271e-01
9.032306820154190063e-02
1.477510333061218262e-01
5.764826759696006775e-02
-1.699362993240356445e-01
7.822437584400177002e-02
-2.287279218435287476e-01
2.363618016242980957e-01
-3.219946622848510742e-01
-1.733438819646835327e-01
1.222892329096794128e-01
-2.040792703628540039e-01
-2.783836722373962402e-01
8.894883096218109131e-02
2.528683543205261230e-01
3.865147009491920471e-02
-2.979487553238868713e-02
2.535262405872344971e-01
-9.046269953250885010e-02
1.685551404953002930e-01
1.611232757568359375e-01
5.540954694151878357e-02
1.938040852546691895e-01
-1.212799921631813049e-01
2.059868164360523224e-02
-2.327070944011211395e-02
3.104344308376312256e-01
2.337028458714485168e-02
1.566638499498367310e-01
1.308024972677230835e-01
-2.957916855812072754e-01
4.128860775381326675e-03
1.592502295970916748e-01
-1.493167728185653687e-01
3.087063729763031006e-01
6.061320379376411438e-02
-5.494465678930282593e-02
3.121903836727142334e-01
2.900296449661254883e-01
-9.690913558006286621e-02
-2.496078982949256897e-02
-1.410340704023838043e-02
-2.467817664146423340e-01
1.266410388052463531e-02
1.835332512855529785e-01
-3.722121939063072205e-02
-3.080315887928009033e-02
-1.935925036668777466e-01
1.741714179515838623e-01
-1.267018765211105347e-01
3.201004862785339355e-01
-2.574469745159149170e-01
-1.419157534837722778e-02
-1.739877276122570038e-02
-1.562169846147298813e-02
2.945403456687927246e-01
-5.799073725938796997e-02
3.083491325378417969e-01
2.577207088470458984e-01
7.127004861831665039e-02
-2.346962094306945801e-01
1.366600543260574341e-01
-1.882702708244323730e-01
-1.798504441976547241e-01
2.294980138540267944e-01
-2.094646841287612915e-01
-2.453027665615081787e-01
-2.548565864562988281e-01
