-6.689596176147460938e-02
-4.013151675462722778e-02
7.707663811743259430e-03
5.377847328782081604e-02
4.479008167982101440e-02
-2.017381228506565094e-02
-1.040661241859197617e-02
-3.229910135269165039e-02
2.982846647500991821e-02
4.423459619283676147e-02
-2.925680205225944519e-02
-4.063383489847183228e-02
-4.219531081616878510e-03
-5.153350904583930969e-02
-1.887922640889883041e-03
3.703224658966064453e-02
-3.324474021792411804e-02
-4.220936819911003113e-02
1.762573048472404480e-02
-5.657436698675155640e-02
2.301032654941082001e-02
-4.192514717578887939e-02
-3.349678963422775269e-02
-3.924423083662986755e-02
-3.893451392650604248e-02
6.742566078901290894e-02
2.643430139869451523e-03
6.413543969392776489e-02
-5.397500470280647278e-02
-4.330749437212944031e-02
5.735387653112411499e-02
3.023281693458557129e-02
-6.939546018838882446e-02
8.680953644216060638e-03
1.427250565029680729e-03
-1.654023304581642151e-02
5.094965174794197083e-02
4.698381200432777405e-02
8.656223304569721222e-03
-6.752340495586395264e-02
-1.011377107352018356e-02
-1.417107507586479187e-02
-5.284496024250984192e-02
4.598044976592063904e-02
-2.213208749890327454e-02
-3.665734780952334404e-03
6.117406114935874939e-02
3.112603910267353058e-02
2.968999370932579041e-02
-6.401787698268890381e-02
5.791579931974411011e-02
4.538909066468477249e-03
6.355078518390655518e-02
-4.799958691000938416e-02
5.345565080642700195e-02
3.098816145211458206e-03
9.481954388320446014e-03
-3.545101359486579895e-02
-6.541301310062408447e-02
5.754133313894271851e-02
3.812869638204574585e-02
-5.580550525337457657e-03
-3.006527386605739594e-02
-3.308911994099617004e-02
-1.118387933820486069e-02
1.511890627443790436e-02
4.330198466777801514e-02
-6.678124517202377319e-02
3.386211814358830452e-03
-5.561865400522947311e-03
-2.501465007662773132e-02
-4.381344094872474670e-02
-6.937489658594131470e-02
1.799147762358188629e-02
-5.321162752807140350e-03
1.634275889955461025e-03
-6.655807048082351685e-02
1.188702415674924850e-02
-1.604067906737327576e-02
5.035385861992835999e-02
-6.979191303253173828e-02
-2.230138145387172699e-02
1.450945972464978695e-03
5.207522213459014893e-02
-5.668538436293601990e-02
1.268357317894697189e-02
-2.326782327145338058e-03
6.231305748224258423e-02
1.349397376179695129e-02
5.064187571406364441e-02
4.227475076913833618e-02
3.546128049492835999e-02
3.513671830296516418e-02
-3.939193487167358398e-02
4.519457742571830750e-02
1.624647341668605804e-02
4.174656234681606293e-03
-7.419592700898647308e-03
-1.204819232225418091e-02
9.093780070543289185e-03
-3.863676637411117554e-02
-6.067694351077079773e-02
6.573564559221267700e-02
-4.300532862544059753e-02
-3.522279858589172363e-02
-4.934504255652427673e-02
-2.747762389481067657e-02
-5.466951429843902588e-02
-2.186794392764568329e-02
-6.272736936807632446e-02
7.139182183891534805e-03
-7.463356480002403259e-03
-1.626295968890190125e-02
-1.416231784969568253e-02
4.729516804218292236e-02
3.559259232133626938e-03
-5.005294829607009888e-02
5.732745304703712463e-02
3.998105227947235107e-02
3.256655856966972351e-02
3.539207577705383301e-02
-5.008786916732788086e-02
-1.026489399373531342e-02
-5.334575194865465164e-03
-3.994141891598701477e-02
-4.744044691324234009e-02
3.954974934458732605e-02
-1.458105817437171936e-02
4.685356095433235168e-02
1.583825424313545227e-02
1.499583944678306580e-02
-1.542259566485881805e-02
-4.784126952290534973e-02
-3.219645842909812927e-02
3.390557691454887390e-02
4.621294140815734863e-02
-1.734827272593975067e-02
8.831092156469821930e-03
-6.867183744907379150e-02
-5.499512702226638794e-02
8.079447783529758453e-03
-5.757759883999824524e-02
-1.084866188466548920e-02
-7.058684527873992920e-02
6.008097156882286072e-02
7.051418651826679707e-04
1.268262509256601334e-02
-1.890329271554946899e-02
3.079769387841224670e-02
5.097601935267448425e-02
3.592877089977264404e-02
3.524933010339736938e-02
3.223371505737304688e-02
-1.738440804183483124e-02
-5.630101263523101807e-02
-5.275119096040725708e-02
-2.893622219562530518e-02
4.516964033246040344e-02
-6.623357534408569336e-02
8.396264165639877319e-03
1.241145096719264984e-02
-1.784933358430862427e-02
1.925873383879661560e-02
2.252138406038284302e-02
-3.365148976445198059e-02
3.759552538394927979e-02
-3.900224342942237854e-02
-4.261244088411331177e-03
-4.377369210124015808e-02
3.635445982217788696e-02
3.053970821201801300e-02
-4.528691247105598450e-02
-4.800150915980339050e-02
-5.212471634149551392e-02
5.257860571146011353e-02
3.419103100895881653e-02
-2.055511064827442169e-02
6.702688336372375488e-02
-6.343653053045272827e-02
-5.920981615781784058e-02
-1.229364983737468719e-02
5.911719053983688354e-02
-6.920447200536727905e-02
-4.385565593838691711e-02
-1.259714085608720779e-02
4.437339678406715393e-02
-7.517202757298946381e-03
-1.656956784427165985e-02
3.216031566262245178e-02
-5.616111308336257935e-02
-2.290084958076477051e-02
-6.342945620417594910e-03
-4.867272824048995972e-02
6.888707727193832397e-02
-5.690881237387657166e-02
5.952389538288116455e-02
3.559638047590851784e-03
3.927709534764289856e-02
-6.093826517462730408e-02
1.925424486398696899e-02
