2.251675426959991455e-01
-1.405713707208633423e-01
-1.965465992689132690e-01
2.996318042278289795e-01
-2.429503947496414185e-02
1.584473848342895508e-01
-3.276547491550445557e-01
-2.429655343294143677e-01
2.463166266679763794e-01
2.060343623161315918e-01
2.979567945003509521e-01
-3.774571716785430908e-01
5.492658168077468872e-02
-2.547569572925567627e-01
-1.162971407175064087e-01
1.335559785366058350e-01
-2.856887280941009521e-01
-1.972296158783137798e-04
-3.128632605075836182e-01
-1.263209730386734009e-01
1.202244675369001925e-04
8.391616493463516235e-02
-2.912491858005523682e-01
-2.572754919528961182e-01
-2.843078672885894775e-01
2.198373526334762573e-01
2.495406568050384521e-01
-3.384916782379150391e-01
1.100696772336959839e-01
1.631111055612564087e-01
-2.260891906917095184e-02
2.242221534252166748e-01
2.265341728925704956e-01
-1.979968994855880737e-01
-3.593512475490570068e-01
-2.288419604301452637e-01
5.021368153393268585e-03
2.537671327590942383e-01
-3.451158702373504639e-01
1.055006980895996094e-01
-2.206167131662368774e-01
6.206950917840003967e-02
-1.953895762562751770e-02
-2.797236740589141846e-01
-3.403668403625488281e-01
8.281937241554260254e-02
-2.162274271249771118e-01
4.051344469189643860e-02
-4.502178356051445007e-02
-1.673044413328170776e-01
-1.444193273782730103e-01
1.079684402793645859e-02
2.477765083312988281e-01
1.614908277988433838e-01
-4.962711036205291748e-02
1.817272901535034180e-01
-1.381978690624237061e-01
-1.159091144800186157e-01
-1.315353363752365112e-01
-3.110919594764709473e-01
-2.809724807739257812e-01
2.230055164545774460e-03
1.838025152683258057e-01
-2.843405008316040039e-01
1.695870310068130493e-01
-1.583092361688613892e-01
1.213842406868934631e-01
6.547406665049493313e-04
2.985650897026062012e-01
3.532607257366180420e-01
3.142589330673217773e-01
7.500358670949935913e-02
-7.049579918384552002e-02
2.597867250442504883e-01
2.280872911214828491e-01
1.087180078029632568e-01
-1.876250952482223511e-01
7.661759736947715282e-04
-2.217549830675125122e-02
2.862789332866668701e-01
-1.686733663082122803e-01
1.509941667318344116e-01
-2.509817779064178467e-01
3.728414475917816162e-01
1.561832278966903687e-01
2.928955852985382080e-01
-4.993643984198570251e-02
2.708631157875061035e-01
4.412440210580825806e-02
3.348036110401153564e-02
6.166874989867210388e-02
-4.053855314850807190e-03
-2.543833553791046143e-01
2.362007275223731995e-02
-3.137127459049224854e-01
-2.295174449682235718e-01
1.435831487178802490e-01
-2.608755230903625488e-01
2.488650232553482056e-01
1.469887942075729370e-01
2.109927833080291748e-01
1.922382265329360962e-01
2.722219526767730713e-01
-2.780413329601287842e-01
-5.783586576581001282e-02
1.835492253303527832e-02
2.868769168853759766e-01
3.027123808860778809e-01
5.995315685868263245e-02
1.749076247215270996e-01
-2.523648738861083984e-01
2.290911972522735596e-01
1.616701185703277588e-01
2.978504300117492676e-01
-3.153376579284667969e-01
-1.867843866348266602e-01
2.810408594086766243e-03
-1.640325188636779785e-01
-2.186979204416275024e-01
3.522059619426727295e-01
-1.089928578585386276e-02
-2.876633405685424805e-01
2.743000984191894531e-01
-1.507610827684402466e-01
-3.408829569816589355e-01
-2.348147332668304443e-01
1.395958662033081055e-01
-2.752572894096374512e-01
-1.233017668128013611e-01
-1.019942164421081543e-01
-2.746884524822235107e-01
2.726075053215026855e-01
-1.417782739736139774e-03
-1.372505277395248413e-01
-4.496742784976959229e-02
-6.380171328783035278e-02
1.942055523395538330e-01
-2.843124866485595703e-01
-2.960166335105895996e-01
-4.729340597987174988e-02
2.580730617046356201e-01
1.329759359359741211e-01
-1.601137369871139526e-01
1.473111808300018311e-01
-9.091272205114364624e-02
-1.918942332267761230e-01
-3.206391632556915283e-01
3.374992311000823975e-01
-3.095748126506805420e-01
2.776309251785278320e-01
-1.267746984958648682e-01
2.182527631521224976e-02
3.309912979602813721e-01
-2.161631137132644653e-01
-1.309900730848312378e-01
-2.841702699661254883e-01
1.799531653523445129e-02
3.185588493943214417e-02
2.004397800192236900e-03
-1.125800013542175293e-01
2.708597481250762939e-01
-1.403377354145050049e-01
1.410626471042633057e-01
-2.808631062507629395e-01
-2.230091020464897156e-02
1.099276542663574219e-01
-1.238743439316749573e-01
-2.908679544925689697e-01
3.119609057903289795e-01
-1.187475398182868958e-01
2.811140716075897217e-01
-9.657526016235351562e-02
-2.364792488515377045e-02
2.031830400228500366e-01
2.956831455230712891e-01
1.607412546873092651e-01
2.961912453174591064e-01
-2.904899418354034424e-01
3.121675550937652588e-01
-3.282729089260101318e-01
-8.592905849218368530e-02
-2.823319435119628906e-01
2.990370690822601318e-01
-2.994607985019683838e-01
1.353506445884704590e-01
9.732196480035781860e-02
1.107909381389617920e-01
-1.674483567476272583e-01
1.301999390125274658e-01
1.002264581620693207e-02
-1.737035363912582397e-01
-7.386104017496109009e-02
-4.156562685966491699e-02
-3.129566609859466553e-01
-1.807343810796737671e-01
-2.634684741497039795e-01
-3.230933845043182373e-01
-2.976056635379791260e-01
3.060750067234039307e-01
-4.951781406998634338e-02
