-4.134145379066467285e-02
-1.157680898904800415e-02
1.267294958233833313e-02
3.865638747811317444e-02
-2.780430577695369720e-02
4.195614159107208252e-02
-2.122361445799469948e-03
4.811466671526432037e-03
5.627319589257240295e-02
-1.821087859570980072e-02
1.911544241011142731e-02
-4.486816748976707458e-02
-3.302906826138496399e-02
-4.978470876812934875e-02
-5.433272942900657654e-02
4.449532553553581238e-02
4.219629988074302673e-02
8.481266908347606659e-03
-4.862134531140327454e-02
7.017209380865097046e-02
6.966696679592132568e-02
4.848593100905418396e-02
4.900308325886726379e-02
-5.930821225047111511e-02
1.852753572165966034e-02
-6.893449276685714722e-02
2.585973404347896576e-02
3.968947380781173706e-02
-2.727642096579074860e-02
-4.200936853885650635e-02
6.043958291411399841e-02
-5.258148163557052612e-02
2.994945831596851349e-02
5.903024598956108093e-02
5.249258875846862793e-02
-1.194656454026699066e-02
1.358398981392383575e-02
-2.819013781845569611e-03
4.464301839470863342e-02
2.697265241295099258e-03
-5.524088814854621887e-02
-6.524378806352615356e-02
9.822808206081390381e-03
3.456060960888862610e-02
-4.691797494888305664e-02
-1.120879221707582474e-02
1.706797443330287933e-02
-6.748225539922714233e-02
2.959846146404743195e-02
4.129097610712051392e-02
4.766251891851425171e-02
-4.504687711596488953e-02
5.349524691700935364e-02
7.169268064899370074e-05
5.778689309954643250e-02
3.067928180098533630e-02
4.984510317444801331e-02
-5.912836268544197083e-02
-6.511925603263080120e-04
2.658445201814174652e-02
-3.612380847334861755e-02
-5.746426433324813843e-02
-3.795015066862106323e-02
4.540414363145828247e-02
-3.748370334506034851e-03
-4.042347893118858337e-02
5.467799305915832520e-02
-1.099529117345809937e-02
6.110692024230957031e-02
-1.221751421689987183e-02
-6.609465926885604858e-02
5.644346401095390320e-02
5.161988362669944763e-02
-5.798312276601791382e-02
3.909579664468765259e-02
2.082144469022750854e-02
-2.883916534483432770e-02
6.082603335380554199e-02
4.790482670068740845e-02
-3.998432680964469910e-02
-4.950186982750892639e-02
-4.353862255811691284e-02
-4.609418660402297974e-02
4.684747755527496338e-02
2.720293402671813965e-02
-2.274386398494243622e-02
5.963715910911560059e-02
1.847997307777404785e-02
7.271863054484128952e-03
-2.854496799409389496e-02
5.646229907870292664e-02
-3.617208823561668396e-02
2.877537906169891357e-02
2.402241155505180359e-02
-8.435090072453022003e-03
1.579302921891212463e-02
1.139434403739869595e-03
6.543233990669250488e-02
-4.830801486968994141e-02
1.991429552435874939e-02
-2.197163179516792297e-02
-4.322598874568939209e-02
-1.957124285399913788e-02
2.490738034248352051e-02
3.980519622564315796e-02
-2.547955885529518127e-02
2.038405044004321098e-03
4.160654917359352112e-02
5.760985240340232849e-02
-4.535264894366264343e-02
-2.297905646264553070e-02
3.642994910478591919e-02
6.113269925117492676e-02
-5.395235121250152588e-02
3.784992732107639313e-03
-6.945563014596700668e-03
6.979249417781829834e-02
7.054540514945983887e-02
-2.913550473749637604e-02
2.159373648464679718e-02
-6.954395025968551636e-02
-5.103014782071113586e-02
1.108711864799261093e-02
2.953896485269069672e-02
3.448212146759033203e-02
-3.584516420960426331e-02
2.746241539716720581e-02
-2.709410153329372406e-03
-9.369976818561553955e-03
-6.458772718906402588e-02
3.300043568015098572e-02
5.029367282986640930e-02
-1.144781336188316345e-02
-3.441083431243896484e-02
2.903545973822474480e-03
-5.101978033781051636e-02
-1.475053839385509491e-02
-3.797278180718421936e-02
-3.407426178455352783e-02
-3.779112920165061951e-02
-1.142108440399169922e-02
6.119487807154655457e-02
6.590985506772994995e-02
9.649699553847312927e-03
6.722895894199609756e-03
3.115467727184295654e-02
8.775652386248111725e-03
4.820854589343070984e-02
-2.753650024533271790e-02
5.615699291229248047e-02
5.809443071484565735e-02
2.746665291488170624e-02
7.015679031610488892e-02
4.594044014811515808e-02
6.946235080249607563e-04
-3.783601149916648865e-02
-6.270291749387979507e-03
5.974072497338056564e-03
-2.256060391664505005e-02
1.689988747239112854e-02
-2.792797167785465717e-04
-2.882515452802181244e-02
-1.759923994541168213e-02
-6.360100116580724716e-03
2.301279164385050535e-04
4.775469750165939331e-02
-5.355488508939743042e-02
2.749442495405673981e-02
-1.605918072164058685e-02
-2.166669070720672607e-02
-2.512914314866065979e-02
2.278865501284599304e-02
-1.504933740943670273e-02
1.105026807636022568e-02
-3.101795352995395660e-02
6.407942622900009155e-02
-3.479690989479422569e-03
6.201649084687232971e-02
-2.507704123854637146e-02
1.435747649520635605e-02
-4.304481670260429382e-02
5.558338016271591187e-02
-2.760661579668521881e-02
3.696849942207336426e-02
-5.417883396148681641e-02
-5.936909839510917664e-02
1.868768408894538879e-02
8.030442520976066589e-03
-6.235691532492637634e-02
5.348937213420867920e-02
1.422952581197023392e-02
-5.430011451244354248e-02
1.571264490485191345e-02
-1.317886542528867722e-02
-5.931524187326431274e-02
-3.394870832562446594e-02
-4.091651365160942078e-02
-3.158716857433319092e-02
4.745563492178916931e-02
-5.651151761412620544e-02
