-2.973295375704765320e-02
-1.363019347190856934e-01
-3.201189935207366943e-01
-1.295705139636993408e-01
2.120896726846694946e-01
9.667050838470458984e-02
3.128601014614105225e-01
-3.016541004180908203e-01
-2.424745410680770874e-01
4.840691015124320984e-02
-7.660245895385742188e-02
-1.519967168569564819e-01
-1.632011979818344116e-01
-2.690232098102569580e-01
1.152706220746040344e-01
2.878525555133819580e-01
7.772354036569595337e-02
-9.416132420301437378e-02
-4.607215896248817444e-02
-2.556174695491790771e-01
-8.261933922767639160e-02
-1.937794387340545654e-01
-2.659552395343780518e-01
2.268967479467391968e-01
-3.116681873798370361e-01
3.242665529251098633e-01
1.764855720102787018e-02
1.500502973794937134e-01
-2.846496701240539551e-01
-2.187462300062179565e-01
-2.344228774309158325e-01
-2.975405193865299225e-02
1.329672485589981079e-01
1.575033515691757202e-01
-1.655283868312835693e-01
2.106293439865112305e-01
-2.298208028078079224e-01
1.802180260419845581e-01
1.453433632850646973e-01
-2.728256583213806152e-01
-2.939679622650146484e-01
-8.797243237495422363e-02
2.803761363029479980e-01
-2.909694612026214600e-01
4.526954889297485352e-02
3.194975852966308594e-01
-1.161738634109497070e-01
1.288049668073654175e-01
-2.325394898653030396e-01
3.572672232985496521e-02
4.668929800391197205e-02
1.773241013288497925e-01
-1.529492586851119995e-01
2.728996872901916504e-01
8.736357837915420532e-02
2.520947754383087158e-01
2.777625918388366699e-01
-2.296614795923233032e-01
2.272865772247314453e-01
-2.882504463195800781e-01
-1.553494334220886230e-01
2.900901436805725098e-01
-2.221138402819633484e-02
1.621608734130859375e-01
3.161825537681579590e-01
-1.907271444797515869e-01
-1.618328839540481567e-01
1.906454004347324371e-02
-1.843986511230468750e-01
-1.995845586061477661e-01
-4.130876064300537109e-02
-1.502428501844406128e-01
2.303289026021957397e-01
8.047718554735183716e-03
-2.202001214027404785e-01
-2.002512812614440918e-01
1.486697345972061157e-01
-1.009012311697006226e-01
-3.437048792839050293e-01
-2.195723652839660645e-01
3.422725498676300049e-01
1.630074083805084229e-01
1.161568537354469299e-01
-1.465440541505813599e-01
1.833966225385665894e-01
-1.861585527658462524e-01
-1.433605104684829712e-01
-1.666699796915054321e-01
-2.035622298717498779e-01
-2.051761895418167114e-01
-2.757638096809387207e-01
-1.620077043771743774e-01
-2.643889784812927246e-01
-3.485306799411773682e-01
-1.962660253047943115e-01
-1.260260790586471558e-01
2.794901728630065918e-01
4.392986744642257690e-02
4.761003702878952026e-02
2.744126021862030029e-01
-1.195849850773811340e-01
-1.165795996785163879e-01
5.204429849982261658e-02
-1.330039799213409424e-01
-7.049246877431869507e-02
-3.100705798715353012e-03
-1.503767669200897217e-01
-1.516383141279220581e-01
-1.560138761997222900e-01
-2.582556605339050293e-01
2.569516897201538086e-01
-6.843064725399017334e-02
4.998972639441490173e-02
-1.931301355361938477e-01
7.105737179517745972e-02
-1.498067677021026611e-01
-1.571238189935684204e-01
8.264176547527313232e-02
-2.628951668739318848e-01
5.462058261036872864e-02
1.703757792711257935e-01
-1.218578293919563293e-01
3.547540605068206787e-01
2.273841053247451782e-01
2.160677313804626465e-01
-3.348615169525146484e-01
-4.593055695295333862e-02
-2.265804708003997803e-01
1.540713906288146973e-01
-1.497153788805007935e-01
-1.474156081676483154e-01
-2.595745027065277100e-01
2.202103435993194580e-01
2.330693975090980530e-02
-2.616159915924072266e-01
-3.509858846664428711e-01
2.799828536808490753e-02
1.972248852252960205e-01
1.904365569353103638e-01
2.545340359210968018e-01
-1.857390403747558594e-01
-7.071007508784532547e-03
3.381648659706115723e-01
2.537247240543365479e-01
9.847541153430938721e-02
-1.653794348239898682e-01
2.651491165161132812e-01
7.267321646213531494e-02
2.164373993873596191e-01
3.260462582111358643e-01
-2.214590907096862793e-01
3.528911769390106201e-01
-1.755318790674209595e-01
1.818309277296066284e-01
2.281453162431716919e-01
2.228743135929107666e-01
2.553669512271881104e-01
2.527723610401153564e-01
7.565546780824661255e-02
1.325939148664474487e-01
-2.841111421585083008e-01
-3.000208139419555664e-01
-9.895707666873931885e-02
-6.501092016696929932e-02
3.355511724948883057e-01
6.982987374067306519e-02
1.423572152853012085e-01
-2.729898095130920410e-01
8.337606489658355713e-02
-9.045636653900146484e-02
5.283890664577484131e-02
-2.686408758163452148e-01
-2.806891500949859619e-01
8.977111428976058960e-02
1.819370663724839687e-03
3.116012783721089363e-03
1.030298247933387756e-01
1.173389106988906860e-01
-4.785885568708181381e-03
1.809550821781158447e-01
-1.371197700500488281e-01
-1.426976323127746582e-01
-2.675531804561614990e-01
3.129668533802032471e-01
3.433316051959991455e-01
-2.197377756237983704e-02
2.911815941333770752e-01
-3.158755898475646973e-01
-2.153121232986450195e-01
3.487672209739685059e-01
1.356494277715682983e-01
1.286538550630211830e-03
-3.360527157783508301e-01
2.921031264122575521e-04
-3.402618169784545898e-01
5.368708819150924683e-02
-2.116189748048782349e-01
-6.281507760286331177e-02
-7.662031799554824829e-02
-3.487269282341003418e-01
