-3.009707294404506683e-02
-5.960600078105926514e-02
5.411208420991897583e-02
3.928697202354669571e-03
4.902156535536050797e-03
-6.574390828609466553e-02
6.112677603960037231e-02
1.229163073003292084e-02
6.477461010217666626e-02
3.177966549992561340e-02
9.964455850422382355e-03
7.031686138361692429e-03
-5.314001813530921936e-02
5.678243562579154968e-02
9.199880994856357574e-03
-5.172650516033172607e-02
2.596477419137954712e-02
-3.035847656428813934e-02
3.444159030914306641e-02
-5.835530906915664673e-02
-1.700414530932903290e-02
4.020139202475547791e-02
-4.800868406891822815e-02
5.982372537255287170e-02
5.679658055305480957e-02
-8.900215849280357361e-03
4.271398112177848816e-02
-3.798750415444374084e-02
-4.676480963826179504e-02
-4.800371825695037842e-02
-2.648322843015193939e-02
6.403758190572261810e-03
4.224281758069992065e-02
-5.620387941598892212e-02
4.378047212958335876e-02
-1.169165968894958496e-02
-3.916555270552635193e-02
-1.828978583216667175e-02
-3.936616703867912292e-02
4.898833483457565308e-02
4.351089149713516235e-02
-5.005262792110443115e-02
4.152717068791389465e-02
-4.325583949685096741e-02
4.002855718135833740e-02
2.209639642387628555e-03
-1.846111938357353210e-02
-5.701931938529014587e-02
-5.332471057772636414e-02
1.903650350868701935e-02
-6.173470988869667053e-02
1.752831973135471344e-02
-5.565655976533889771e-02
5.428551137447357178e-02
-7.147831376641988754e-03
-7.353099994361400604e-03
3.005561046302318573e-02
-4.958857968449592590e-02
4.028853401541709900e-02
-1.051015127450227737e-02
6.758627481758594513e-03
-6.769823282957077026e-02
-5.612773075699806213e-02
-5.982873588800430298e-02
-4.690931737422943115e-02
-4.995849356055259705e-02
4.384315386414527893e-02
-3.622359037399291992e-02
1.254201959818601608e-02
9.568503126502037048e-03
1.546372938901185989e-02
-9.803338907659053802e-04
-4.186707735061645508e-02
6.483440846204757690e-02
-5.025682970881462097e-02
2.822211571037769318e-02
-5.474791303277015686e-02
-2.147755771875381470e-02
-1.674680970609188080e-02
-4.645275324583053589e-02
2.625775150954723358e-02
-6.500829756259918213e-02
-2.575144730508327484e-02
-1.970081590116024017e-02
-5.382433533668518066e-02
4.694672673940658569e-02
-7.475605234503746033e-03
-3.805907815694808960e-02
6.319815292954444885e-03
2.999916113913059235e-02
-3.375750966370105743e-04
-5.780220031738281250e-02
-5.195251852273941040e-02
9.325191378593444824e-03
-5.338234454393386841e-02
4.122842103242874146e-02
4.391929507255554199e-02
4.908791556954383850e-02
-1.456588134169578552e-02
4.563290253281593323e-02
-4.917909950017929077e-02
-1.758216693997383118e-02
2.263590693473815918e-02
-1.864179037511348724e-02
6.570155173540115356e-02
6.916793435811996460e-02
-1.890929974615573883e-02
2.342606429010629654e-03
-5.636535584926605225e-02
-5.995940417051315308e-02
-2.290740050375461578e-02
-3.369409963488578796e-02
4.055630788207054138e-02
3.671319410204887390e-02
4.190621152520179749e-02
-6.677879020571708679e-03
6.096982955932617188e-02
7.023417949676513672e-02
4.618212953209877014e-02
1.350638736039400101e-02
-2.838762849569320679e-02
-6.122260540723800659e-02
3.276968002319335938e-02
1.433781348168849945e-02
-8.572540245950222015e-03
6.242082640528678894e-02
4.072110727429389954e-02
6.402613222599029541e-02
2.333928272128105164e-02
2.671002037823200226e-02
-5.756491422653198242e-02
-7.416910491883754730e-03
5.469653755426406860e-02
2.044125460088253021e-02
1.879666931927204132e-02
-4.651273135095834732e-03
-6.531619280576705933e-02
6.430887430906295776e-02
-1.639608666300773621e-02
4.816531389951705933e-02
3.238516300916671753e-02
-4.443256929516792297e-02
6.578497122973203659e-03
-1.231979113072156906e-03
6.778264790773391724e-02
-1.866715587675571442e-02
-5.653308704495429993e-02
-1.044783275574445724e-02
-3.427264094352722168e-02
-1.460658013820648193e-02
5.763692408800125122e-02
-5.638628266751766205e-03
3.531971573829650879e-02
4.236609116196632385e-02
4.995115473866462708e-02
4.300712049007415771e-02
-2.623808383941650391e-02
1.899442449212074280e-02
-5.799625068902969360e-02
2.335290424525737762e-03
-2.656972780823707581e-02
-2.035173587501049042e-03
4.631901532411575317e-02
-2.427946589887142181e-02
4.939621314406394958e-02
-3.672944009304046631e-02
-3.797765821218490601e-02
8.626312948763370514e-03
-1.058874092996120453e-02
4.246132075786590576e-02
-2.886678557842969894e-03
4.140321165323257446e-02
-2.389399707317352295e-02
1.617271825671195984e-02
-3.595031425356864929e-02
-4.862949624657630920e-02
2.874734811484813690e-02
-5.593447014689445496e-02
2.065344154834747314e-02
3.991037979722023010e-02
-2.768091484904289246e-02
-5.565220862627029419e-02
5.373356863856315613e-02
3.424930572509765625e-02
-6.959984451532363892e-02
-1.560591161251068115e-02
5.822476372122764587e-02
-5.363261792808771133e-03
1.889393548481166363e-03
5.219636112451553345e-02
-4.085412248969078064e-02
3.943940624594688416e-02
-4.583054408431053162e-02
-7.532708346843719482e-03
-2.598486281931400299e-02
-1.659414172172546387e-02
9.967729449272155762e-03
3.688636422157287598e-02
-5.692964792251586914e-02
6.793570518493652344e-02
