1.586225815117359161e-02
-1.210469007492065430e-01
-1.454487293958663940e-01
-7.005865126848220825e-02
-5.668341368436813354e-02
2.094110846519470215e-01
-3.596174763515591621e-03
-8.776924014091491699e-02
7.828233391046524048e-02
3.970003873109817505e-02
1.225356906652450562e-01
-1.687108725309371948e-02
2.723860368132591248e-02
8.222126215696334839e-02
-1.699553728103637695e-01
8.518893271684646606e-02
1.232353895902633667e-01
-2.094991505146026611e-01
-8.379625505767762661e-04
-2.094021737575531006e-01
4.918308183550834656e-02
-1.116428673267364502e-01
-1.627396494150161743e-01
-1.678689271211624146e-01
-5.616935715079307556e-02
-1.442794203758239746e-01
-2.029485106468200684e-01
-1.944777369499206543e-01
-1.588284522294998169e-01
-8.997372537851333618e-02
-1.255885511636734009e-01
1.487593203783035278e-01
1.045114621520042419e-01
6.003941223025321960e-02
1.831098049879074097e-01
1.508399248123168945e-01
-7.594892382621765137e-02
-1.225194483995437622e-01
6.567421555519104004e-02
-1.829708740115165710e-02
1.555445045232772827e-01
1.799751669168472290e-01
-8.383613079786300659e-03
-7.404331117868423462e-02
1.517518609762191772e-01
-1.771228164434432983e-01
1.729657500982284546e-01
1.996376216411590576e-01
1.071949303150177002e-01
2.413354814052581787e-02
