-9.265994280576705933e-02
-4.867267608642578125e-02
-1.006480231881141663e-01
9.080184996128082275e-02
-9.353452920913696289e-02
7.585506886243820190e-02
6.236334145069122314e-02
8.910694718360900879e-02
-7.435434311628341675e-02
6.570166349411010742e-02
1.337095350027084351e-01
-2.292953059077262878e-02
1.207813620567321777e-01
-4.988605529069900513e-02
-3.073470294475555420e-02
7.306281477212905884e-02
-3.692066296935081482e-02
1.109647229313850403e-01
-7.409285008907318115e-02
-1.598331518471240997e-02
-1.261432021856307983e-01
-8.987051993608474731e-02
-1.872791722416877747e-02
1.135947704315185547e-01
4.523504525423049927e-02
3.967856615781784058e-02
7.378163933753967285e-02
-7.902602851390838623e-02
-1.086345389485359192e-01
5.300591234117746353e-03
4.036493226885795593e-02
4.868789762258529663e-02
-3.106468915939331055e-02
-3.739092871546745300e-02
-5.141786485910415649e-02
8.336959779262542725e-02
-3.650255873799324036e-02
-2.195365726947784424e-02
6.077444553375244141e-02
7.023672014474868774e-02
4.194617643952369690e-02
4.514705017209053040e-02
1.137758791446685791e-01
3.198011964559555054e-02
-1.124480459839105606e-02
3.736194595694541931e-02
-3.090814128518104553e-02
4.560735821723937988e-02
-9.890160709619522095e-02
7.678125798702239990e-02
