3.134629502892494202e-02
2.293335273861885071e-02
-2.920057624578475952e-02
4.746678750962018967e-03
-3.353813663125038147e-02
-5.495327338576316833e-02
-4.983181878924369812e-02
-5.572095885872840881e-02
-7.610502839088439941e-02
5.439938977360725403e-02
3.662876784801483154e-02
-3.410346060991287231e-02
-4.199637845158576965e-02
-5.097121000289916992e-02
-4.279322177171707153e-02
1.198929501697421074e-03
-7.428187131881713867e-02
3.667514026165008545e-02
-5.248377472162246704e-02
-5.902284383773803711e-02
-2.578689716756343842e-02
-3.919973596930503845e-02
-8.094082772731781006e-02
-6.436690688133239746e-02
3.278755396604537964e-02
1.768914610147476196e-02
-6.991591304540634155e-02
-7.783059030771255493e-02
-7.159822434186935425e-02
-6.167954206466674805e-02
5.430083721876144409e-02
3.009242191910743713e-02
-6.281130760908126831e-02
-3.782555460929870605e-02
-6.412564963102340698e-02
6.120667234063148499e-02
-2.304308302700519562e-02
-6.572699174284934998e-03
7.381676137447357178e-02
-7.971348613500595093e-02
-2.579158172011375427e-02
1.447491906583309174e-02
-3.403925895690917969e-02
-5.168580263853073120e-02
1.326852827332913876e-03
-1.074437983334064484e-02
6.788197904825210571e-02
7.150251418352127075e-02
4.678667336702346802e-02
-6.226329505443572998e-02
-5.120401084423065186e-02
3.767859563231468201e-02
3.164941444993019104e-02
6.650041788816452026e-02
2.325283735990524292e-02
1.803670823574066162e-02
-3.384285792708396912e-02
-4.003420844674110413e-02
1.097621489316225052e-02
-2.292823977768421173e-02
7.276343554258346558e-02
6.671240925788879395e-02
9.671628475189208984e-03
-7.011958956718444824e-02
2.822485007345676422e-02
-1.761426031589508057e-02
-7.534030079841613770e-02
2.163211256265640259e-02
-2.065981738269329071e-02
-7.823866605758666992e-02
-8.100776933133602142e-03
1.813904568552970886e-02
-3.094225004315376282e-02
-5.298190191388130188e-02
1.786414906382560730e-02
-1.265450753271579742e-02
-7.828483730554580688e-02
-7.462448906153440475e-03
-7.663373649120330811e-02
3.592689707875251770e-02
6.817458570003509521e-02
3.837449103593826294e-02
-2.239811234176158905e-03
-1.425055880099534988e-02
-3.467789292335510254e-02
7.048055529594421387e-02
-8.041782677173614502e-02
6.601060181856155396e-02
-5.848037451505661011e-02
4.701593518257141113e-02
-5.300962924957275391e-02
-3.185386583209037781e-02
1.626913994550704956e-02
-4.488772898912429810e-02
4.784298315644264221e-02
2.560488507151603699e-02
-1.978086121380329132e-02
-4.661310836672782898e-02
-7.521647959947586060e-02
1.284516416490077972e-02
8.191647939383983612e-03
-7.809954881668090820e-02
7.572756707668304443e-02
4.495741054415702820e-02
2.146269381046295166e-02
-7.845354825258255005e-02
-5.326343327760696411e-02
-4.884559288620948792e-02
-2.904656901955604553e-02
2.867021784186363220e-02
9.588712826371192932e-03
6.008554250001907349e-02
7.359095662832260132e-02
-5.061359331011772156e-02
6.148624420166015625e-02
-4.595906659960746765e-02
6.092111766338348389e-02
4.603800177574157715e-02
3.585138544440269470e-02
3.021748736500740051e-02
-7.076639682054519653e-02
2.227712422609329224e-02
-3.651061654090881348e-02
3.943911753594875336e-03
4.337546974420547485e-02
4.160272330045700073e-02
-8.047509938478469849e-02
-2.191997133195400238e-03
-5.039985850453376770e-02
-2.222608216106891632e-02
-4.651296138763427734e-02
-6.530248373746871948e-02
-7.328304648399353027e-02
-7.128627598285675049e-02
2.830060571432113647e-02
2.976813726127147675e-02
7.264272868633270264e-02
5.827179644256830215e-03
8.792667649686336517e-03
-4.734303802251815796e-02
7.869611680507659912e-02
-1.695327274501323700e-02
2.028302114922553301e-04
-7.997328042984008789e-02
6.793460249900817871e-02
7.597658783197402954e-02
-6.834891159087419510e-03
4.441120848059654236e-02
5.663555487990379333e-02
6.475662346929311752e-03
