1.311393678188323975e-01
2.659538090229034424e-01
1.993461251258850098e-01
-1.011858582496643066e-01
-3.339560031890869141e-01
-2.468000948429107666e-01
2.864833362400531769e-02
1.517602652311325073e-01
1.209101527929306030e-01
2.320006489753723145e-01
3.543665111064910889e-01
1.037863120436668396e-01
-3.199590146541595459e-01
8.764858543872833252e-02
3.353721797466278076e-01
-3.835733607411384583e-02
-1.858690828084945679e-01
2.886864244937896729e-01
2.647897601127624512e-01
-2.237124443054199219e-01
-2.973669469356536865e-01
2.532737553119659424e-01
1.370288133621215820e-01
2.046851217746734619e-01
2.736768126487731934e-01
-3.011932373046875000e-01
-2.784687578678131104e-01
-3.203288316726684570e-01
1.837492585182189941e-01
-3.317329585552215576e-01
8.156406134366989136e-02
3.057941496372222900e-01
1.026449874043464661e-01
1.480529904365539551e-01
1.566668599843978882e-01
-2.254491001367568970e-01
-1.234578266739845276e-01
-4.706015344709157944e-03
1.338986158370971680e-01
1.148753687739372253e-01
2.839134335517883301e-01
3.263241350650787354e-01
2.730026543140411377e-01
-2.720952332019805908e-01
6.117262318730354309e-02
-3.086595237255096436e-01
2.356370985507965088e-01
-3.120328485965728760e-01
-8.476638793945312500e-02
7.941287755966186523e-02
-2.530799210071563721e-01
-2.653258442878723145e-01
-3.517335951328277588e-01
1.314283311367034912e-01
-1.822322010993957520e-01
-2.606517076492309570e-01
-5.922739580273628235e-02
-3.205622136592864990e-01
-1.596845984458923340e-01
1.014583036303520203e-01
2.537990510463714600e-01
-8.772718720138072968e-03
5.184274166822433472e-02
-2.678814828395843506e-01
-1.770567595958709717e-01
3.029400110244750977e-01
-1.646069139242172241e-01
-1.275529116392135620e-01
3.006808459758758545e-01
-2.783413231372833252e-01
5.550196021795272827e-02
-5.512614920735359192e-02
5.036683380603790283e-02
2.078379329759627581e-04
9.004685282707214355e-02
1.088997125625610352e-01
2.407245784997940063e-01
-2.236023992300033569e-01
-2.116664052009582520e-01
-1.116604059934616089e-01
1.512352228164672852e-01
2.686769962310791016e-01
-1.033318340778350830e-01
-7.363011687994003296e-02
-3.382662534713745117e-01
-2.007854431867599487e-01
-1.539293378591537476e-01
2.209993600845336914e-01
1.299706995487213135e-01
-2.022811211645603180e-02
-1.574252098798751831e-01
9.821501374244689941e-02
-1.234735921025276184e-01
-6.178808212280273438e-02
4.934548959136009216e-02
-2.796633839607238770e-01
2.341044880449771881e-02
-1.007626354694366455e-01
4.707466345280408859e-03
-1.945636719465255737e-01
-2.014189213514328003e-01
2.726987302303314209e-01
-1.246151104569435120e-01
1.157961860299110413e-01
-1.387605965137481689e-01
-3.289939761161804199e-01
-2.460128962993621826e-01
3.506090939044952393e-01
7.736769318580627441e-02
1.578085869550704956e-01
-3.321184813976287842e-01
-1.319680958986282349e-01
3.341533541679382324e-01
-1.120002120733261108e-01
3.259103000164031982e-01
-2.985171377658843994e-01
-2.577362060546875000e-01
-2.857636213302612305e-01
-3.445622920989990234e-01
-1.237150505185127258e-01
1.505708228796720505e-02
-1.418303400278091431e-01
1.130706816911697388e-01
-2.887162566184997559e-01
3.409965038299560547e-01
1.227592751383781433e-01
-1.840224564075469971e-01
4.658334329724311829e-02
-1.955558061599731445e-01
-9.587745368480682373e-02
1.924848407506942749e-01
2.091766446828842163e-01
-4.087966307997703552e-02
2.572015821933746338e-01
2.589664459228515625e-01
1.853604614734649658e-01
-2.885235249996185303e-01
2.501102685928344727e-01
2.433100491762161255e-01
-3.076843619346618652e-01
3.492906093597412109e-01
-2.709161043167114258e-01
1.604240685701370239e-01
-1.976489871740341187e-01
-2.396025359630584717e-01
3.382659256458282471e-01
2.723146080970764160e-01
-2.834358811378479004e-01
6.462042778730392456e-02
5.451642349362373352e-02
