1.487393975257873535e-01
1.006380170583724976e-01
-1.872505433857440948e-02
3.532139211893081665e-02
-2.100710123777389526e-01
-9.610408544540405273e-02
5.477530509233474731e-02
1.143288761377334595e-01
6.326667498797178268e-03
1.904481053352355957e-01
-6.459949910640716553e-02
1.697695553302764893e-01
1.021659076213836670e-01
6.677678227424621582e-02
2.034617662429809570e-01
4.884970188140869141e-02
1.003392562270164490e-01
-2.058736085891723633e-01
2.475209720432758331e-02
-1.025270000100135803e-01
-5.707108229398727417e-02
6.203367561101913452e-02
8.817811310291290283e-02
-1.792997717857360840e-01
-3.334155073389410973e-03
5.021356046199798584e-02
2.005479335784912109e-01
-6.106168776750564575e-02
-3.888400644063949585e-02
1.638201624155044556e-01
1.448046416044235229e-02
-2.005667239427566528e-01
-3.052244521677494049e-02
1.024137735366821289e-01
-1.850902289152145386e-01
2.087608426809310913e-01
7.342978380620479584e-03
1.318963617086410522e-01
-4.859107360243797302e-02
-7.785390317440032959e-02
-1.454480588436126709e-01
-1.809210628271102905e-01
-1.577561050653457642e-01
1.936414986848831177e-01
-2.010201960802078247e-01
-1.803773939609527588e-01
1.301864981651306152e-01
-1.670226156711578369e-01
1.511542946100234985e-01
6.496485788375139236e-03
1.778872460126876831e-01
3.083164058625698090e-02
2.063468396663665771e-01
6.783061474561691284e-02
1.830995231866836548e-01
-1.681181937456130981e-01
2.021169960498809814e-01
-1.026633083820343018e-01
-1.739237271249294281e-02
-8.325926214456558228e-02
-1.150149106979370117e-01
1.323632299900054932e-01
9.280227869749069214e-02
-1.275750100612640381e-01
1.410807073116302490e-01
-1.655504703521728516e-01
-6.229104846715927124e-02
-1.731552630662918091e-01
1.493760943412780762e-01
1.045160666108131409e-01
3.189068287611007690e-02
1.683626323938369751e-01
9.147264063358306885e-02
-1.123754233121871948e-01
1.020560488104820251e-01
1.357864141464233398e-01
1.156109720468521118e-01
1.389060355722904205e-02
1.149248182773590088e-01
1.049109548330307007e-01
1.093202382326126099e-01
-1.353494375944137573e-01
-1.582869291305541992e-01
-1.439997255802154541e-01
-9.501972794532775879e-02
-9.549237787723541260e-02
1.450134068727493286e-01
4.480436071753501892e-02
1.658985018730163574e-01
-3.456060215830802917e-02
-1.727051585912704468e-01
2.041766941547393799e-01
8.671291917562484741e-02
-1.697180978953838348e-02
-3.759866952896118164e-02
-1.298153549432754517e-01
-1.875798851251602173e-01
1.522506326436996460e-01
2.090036123991012573e-02
-6.924477964639663696e-02
1.254875361919403076e-01
-9.220720827579498291e-02
-4.586568102240562439e-03
-2.407234348356723785e-02
-1.997507661581039429e-01
1.899445801973342896e-01
-1.124211922287940979e-01
1.138146035373210907e-03
1.846541762351989746e-01
1.819785498082637787e-02
1.126083433628082275e-01
1.283690929412841797e-01
5.363584309816360474e-02
-2.069977223873138428e-01
1.145479381084442139e-01
9.220095723867416382e-02
-1.675128191709518433e-01
6.797970831394195557e-02
-1.808614730834960938e-01
-1.767676174640655518e-01
-1.768563091754913330e-01
2.049850076436996460e-01
-1.944937407970428467e-01
-7.504023611545562744e-02
-2.051791995763778687e-01
5.131436884403228760e-02
1.235482618212699890e-01
-4.386996105313301086e-02
1.191811263561248779e-01
1.832073926925659180e-01
-2.400213107466697693e-02
8.215829730033874512e-02
-1.875319778919219971e-01
-3.137459605932235718e-02
-7.566822320222854614e-02
2.004474401473999023e-01
-1.550853401422500610e-01
6.901463866233825684e-02
-2.936471626162528992e-02
-2.469001570716500282e-03
2.617076039314270020e-02
-5.549604818224906921e-02
5.327785760164260864e-02
-8.411728590726852417e-02
2.092107534408569336e-01
-8.160405606031417847e-02
1.576566882431507111e-02
-4.568405076861381531e-02
-1.996463537216186523e-01
1.237139701843261719e-01
