-2.969241328537464142e-02
5.353535339236259460e-02
5.419403687119483948e-02
3.564767912030220032e-02
-7.579895853996276855e-02
1.929207239300012589e-03
-3.382406756281852722e-02
1.873045694082975388e-04
-1.814932329580187798e-03
7.847002148628234863e-02
7.088392227888107300e-02
6.310352683067321777e-02
-3.310365229845046997e-02
5.821763537824153900e-03
1.527080964297056198e-02
3.547768294811248779e-02
3.895447589457035065e-03
-1.677980087697505951e-02
5.033326894044876099e-02
-7.943932712078094482e-02
-7.942543178796768188e-02
4.923508688807487488e-02
-2.740828320384025574e-02
9.514468722045421600e-03
6.950081139802932739e-02
2.121654339134693146e-02
-2.701656520366668701e-02
-5.005342420190572739e-03
7.128380984067916870e-02
-7.283040136098861694e-02
-2.004115097224712372e-02
-1.561043784022331238e-03
-2.001171000301837921e-03
-2.729717828333377838e-02
-6.596951186656951904e-02
1.766725629568099976e-02
-2.261562645435333252e-02
3.210557624697685242e-02
-6.019033491611480713e-02
6.937355548143386841e-02
5.215167999267578125e-02
2.451116405427455902e-02
4.666554555296897888e-02
-6.253870576620101929e-02
2.338529378175735474e-02
-8.036424219608306885e-02
-6.838836520910263062e-02
4.134383797645568848e-02
-7.609924674034118652e-02
-2.317899838089942932e-02
-2.477001771330833435e-02
1.822520419955253601e-02
-3.801394253969192505e-02
-6.797421257942914963e-03
-3.410733118653297424e-02
7.166562229394912720e-02
-5.588466301560401917e-03
2.330280654132366180e-02
4.746807739138603210e-02
-4.016624763607978821e-02
6.875008344650268555e-02
5.329642817378044128e-02
1.833400502800941467e-02
-1.499201823025941849e-02
2.513415925204753876e-02
1.292434893548488617e-02
-2.892080880701541901e-02
5.593153182417154312e-04
7.375837862491607666e-02
-2.784893289208412170e-02
1.042494457215070724e-02
2.205022796988487244e-02
-1.303185988217592239e-02
4.902065265923738480e-03
4.855203628540039062e-02
5.597240850329399109e-02
6.843629479408264160e-02
-2.358047664165496826e-02
-6.244685966521501541e-03
7.659507542848587036e-02
-1.772561855614185333e-02
-2.254475094377994537e-02
-4.756645858287811279e-02
6.340503692626953125e-02
6.716113537549972534e-02
-6.604255735874176025e-02
-5.011281371116638184e-02
3.464778512716293335e-02
-2.769723907113075256e-02
2.855990268290042877e-02
4.289123788475990295e-02
-3.565441817045211792e-02
4.476041719317436218e-02
2.366631664335727692e-02
2.887666970491409302e-02
-2.746207453310489655e-02
1.381911151111125946e-02
-4.258873872458934784e-03
7.857792079448699951e-02
6.060098856687545776e-02
-8.556493557989597321e-03
-6.758303940296173096e-02
3.135539824143052101e-03
-4.068772774189710617e-03
7.516812533140182495e-02
7.426378875970840454e-02
-4.854794591665267944e-02
-2.446698956191539764e-02
-3.432871028780937195e-02
-5.107536166906356812e-02
-1.084325835108757019e-02
-3.905165940523147583e-02
6.628321111202239990e-02
-7.716813683509826660e-02
2.797781303524971008e-02
-5.747418850660324097e-02
-1.854310627095401287e-03
1.239805249497294426e-03
-4.964588209986686707e-03
-2.330612018704414368e-02
-7.326402515172958374e-02
-3.841110505163669586e-03
-4.304959438741207123e-03
-3.976483270525932312e-02
-3.106155619025230408e-02
-5.817038193345069885e-02
-6.459327787160873413e-02
-3.477494046092033386e-02
-2.162642404437065125e-02
4.578250274062156677e-02
1.533466018736362457e-02
1.675753481686115265e-02
5.880861356854438782e-02
2.438355796039104462e-02
-3.249109163880348206e-02
6.411403417587280273e-03
5.465593561530113220e-02
6.772542372345924377e-03
-1.930780522525310516e-02
-4.466344788670539856e-02
-5.993368476629257202e-02
-4.054383933544158936e-02
3.974843025207519531e-02
-3.367891162633895874e-02
-2.241067029535770416e-02
-5.634889379143714905e-02
-9.271671995520591736e-03
8.730964735150337219e-03
-2.982848882675170898e-02
-4.025368392467498779e-02
