3.139191493391990662e-02
-1.184716122224926949e-03
-2.682496309280395508e-01
3.533113300800323486e-01
7.604743540287017822e-02
-6.817808002233505249e-02
3.404750823974609375e-01
6.838713586330413818e-02
-2.777074277400970459e-02
-1.582124829292297363e-01
-1.930834352970123291e-01
1.224498674273490906e-01
-2.672785222530364990e-01
-3.533681929111480713e-01
2.182861417531967163e-01
1.121305972337722778e-01
1.140379682183265686e-01
2.068597078323364258e-01
-6.988532841205596924e-02
-2.963841557502746582e-01
2.233680784702301025e-01
8.218836039304733276e-02
1.390387266874313354e-01
2.667176425457000732e-01
-8.658119291067123413e-02
-3.335594534873962402e-01
-2.024249285459518433e-01
-2.428089380264282227e-01
2.434917390346527100e-01
3.386209309101104736e-01
-2.557496428489685059e-01
-1.569892615079879761e-01
3.130377829074859619e-01
3.203249573707580566e-01
-1.247426420450210571e-01
7.308654487133026123e-02
1.520036607980728149e-01
3.169927000999450684e-02
2.556277215480804443e-01
3.134015500545501709e-01
2.227547466754913330e-01
1.089768037199974060e-01
1.960890144109725952e-01
7.833601534366607666e-02
1.538925319910049438e-01
3.368965089321136475e-01
9.646286070346832275e-02
-1.228429600596427917e-01
-2.331184744834899902e-01
2.175417095422744751e-01
-1.234913989901542664e-01
1.030277274549007416e-02
-1.393468230962753296e-01
-1.064684987068176270e-01
-8.889918029308319092e-02
3.367762863636016846e-01
3.396774530410766602e-01
-1.709747761487960815e-01
-6.360878795385360718e-02
1.950218155980110168e-02
-1.784946471452713013e-01
-1.430530995130538940e-01
-1.628465205430984497e-01
2.064851820468902588e-01
5.552669987082481384e-02
3.079124093055725098e-01
-1.159571334719657898e-01
-1.761188060045242310e-01
-4.565414413809776306e-02
2.930767238140106201e-01
-5.161130428314208984e-02
-1.595592349767684937e-01
1.382253617048263550e-01
1.851418614387512207e-01
1.684732437133789062e-01
1.472401320934295654e-01
-3.068784177303314209e-01
2.092079818248748779e-01
2.148415595293045044e-01
-3.127484619617462158e-01
-6.954494118690490723e-02
-1.418326646089553833e-01
-1.896448582410812378e-01
-1.524367183446884155e-01
2.281911969184875488e-01
1.594342887401580811e-01
3.313038945198059082e-01
-3.202736079692840576e-01
2.545308768749237061e-01
-9.505496174097061157e-02
2.285223156213760376e-01
6.850755214691162109e-02
-9.804198890924453735e-02
1.050698161125183105e-01
3.500551283359527588e-01
1.067395508289337158e-01
4.686801135540008545e-02
-1.519878115504980087e-02
-3.524248898029327393e-01
-1.777147054672241211e-01
-2.066769003868103027e-01
5.225757136940956116e-02
-3.400626182556152344e-01
1.820770204067230225e-01
1.770311594009399414e-01
-2.440817952156066895e-01
-2.561309635639190674e-01
3.055438399314880371e-01
3.414416015148162842e-01
-2.567819058895111084e-01
2.670253217220306396e-01
2.944141626358032227e-01
1.792293787002563477e-02
1.733618378639221191e-01
-1.187929660081863403e-01
1.245304420590400696e-01
-2.192122042179107666e-01
-3.731410577893257141e-02
-1.465257555246353149e-01
1.022727265954017639e-01
-2.001331597566604614e-01
-6.545799970626831055e-02
2.753923833370208740e-01
2.595785558223724365e-01
-7.438164204359054565e-02
1.995777934789657593e-01
-1.249102875590324402e-02
-3.140941560268402100e-01
2.748359739780426025e-01
5.639198794960975647e-02
-2.333151102066040039e-01
-1.521705389022827148e-01
2.126281708478927612e-01
-7.208729535341262817e-02
2.059045992791652679e-02
2.779539227485656738e-01
2.465661764144897461e-01
-1.469387859106063843e-01
2.717566490173339844e-01
4.341215826570987701e-03
-2.035576552152633667e-01
7.837628014385700226e-03
3.195453882217407227e-01
-3.032495640218257904e-02
2.603958845138549805e-01
2.700449228286743164e-01
1.874828934669494629e-01
2.762890793383121490e-02
-2.332304567098617554e-01
1.868701726198196411e-01
-2.413528263568878174e-01
-1.090438738465309143e-01
-1.304966360330581665e-01
9.466519951820373535e-02
2.789351642131805420e-01
1.481522023677825928e-01
-2.732604444026947021e-01
-1.035610865801572800e-02
-1.823751032352447510e-01
2.055743783712387085e-01
2.093359231948852539e-01
-1.135219112038612366e-01
-6.556541472673416138e-02
2.057450413703918457e-01
2.449360936880111694e-01
1.649320721626281738e-01
1.121895462274551392e-01
-1.899818517267704010e-02
-1.174674555659294128e-01
1.953634619712829590e-01
2.486547231674194336e-01
-1.034181490540504456e-01
-5.360290780663490295e-02
-2.295012176036834717e-01
4.739498253911733627e-03
-3.144040703773498535e-01
-3.218358159065246582e-01
2.858397662639617920e-01
2.370381727814674377e-02
-2.685294151306152344e-01
-2.644577324390411377e-01
-2.311994731426239014e-01
-2.926379144191741943e-01
1.983645558357238770e-01
8.588890545070171356e-03
7.735463976860046387e-02
3.409411311149597168e-01
-1.712188422679901123e-01
1.882921755313873291e-01
3.101715743541717529e-01
3.130666315555572510e-01
-3.603196889162063599e-02
1.710188984870910645e-01
2.606134116649627686e-01
-1.035793870687484741e-01
-2.999968826770782471e-01
-2.503979206085205078e-01
3.177997767925262451e-01
3.429283499717712402e-01
-2.489228695631027222e-01
