4.498386115301400423e-04
-2.792419306933879852e-02
-5.461306869983673096e-02
5.384200066328048706e-02
4.553059488534927368e-02
3.430651128292083740e-02
5.227202922105789185e-02
-2.282667718827724457e-02
5.458469316363334656e-02
-8.354213787242770195e-04
3.129145875573158264e-02
9.376580826938152313e-03
-4.368386790156364441e-02
4.002621024847030640e-02
4.890438169240951538e-02
-1.510242652148008347e-02
5.311275273561477661e-02
9.045491926372051239e-03
5.903848633170127869e-02
-2.508435584604740143e-02
-6.120977550745010376e-02
5.740640312433242798e-02
-5.765661969780921936e-02
3.417646512389183044e-02
-1.269072201102972031e-02
-4.431298747658729553e-02
-2.933252230286598206e-02
2.413392066955566406e-02
7.028108835220336914e-02
3.086610324680805206e-02
6.067623570561408997e-02
5.206134170293807983e-02
-1.678599789738655090e-02
-5.433088541030883789e-02
4.545689746737480164e-02
-5.742942169308662415e-02
1.329566910862922668e-02
6.355927139520645142e-02
-1.991898566484451294e-02
-4.415629431605339050e-02
-3.699117572978138924e-03
4.394758120179176331e-02
-1.414221990853548050e-02
-6.497698277235031128e-02
1.174104632809758186e-03
2.891243807971477509e-02
-2.395398728549480438e-02
2.616025321185588837e-02
-2.846007421612739563e-02
6.352923810482025146e-02
7.001835107803344727e-02
-3.896353766322135925e-02
2.801496163010597229e-02
-2.073144912719726562e-02
-4.410813748836517334e-02
3.355092927813529968e-02
-6.852895021438598633e-02
6.401224434375762939e-02
2.783704921603202820e-02
5.402417853474617004e-02
2.973163127899169922e-02
5.511656403541564941e-02
5.426241829991340637e-02
-1.165876351296901703e-02
-6.094010919332504272e-02
4.937992990016937256e-02
1.031120494008064270e-02
6.232497841119766235e-02
-1.610284298658370972e-02
-4.708066955208778381e-02
3.343296796083450317e-02
-4.702518135309219360e-02
1.992277055978775024e-02
1.914716511964797974e-02
2.991224080324172974e-02
6.019536405801773071e-02
-3.099670633673667908e-03
-1.509247627109289169e-02
-4.597344249486923218e-02
6.213782355189323425e-02
5.018669366836547852e-02
2.876289747655391693e-02
5.681923404335975647e-02
3.666286170482635498e-02
-5.164064094424247742e-02
-6.850671023130416870e-02
-4.448600113391876221e-02
-1.145902462303638458e-02
-3.703020885586738586e-02
4.430065304040908813e-02
-4.412751272320747375e-02
-2.232170850038528442e-02
-5.191653035581111908e-03
-5.181454494595527649e-02
-6.738884747028350830e-02
5.402816087007522583e-02
1.774347620084881783e-03
-6.114707514643669128e-02
-3.999995440244674683e-02
-5.926885455846786499e-02
-5.911312624812126160e-02
5.600060150027275085e-02
-5.890079587697982788e-02
2.765303477644920349e-03
7.044328749179840088e-02
-6.967264413833618164e-02
-5.552820488810539246e-02
-9.859366342425346375e-03
-2.464460581541061401e-02
6.669554114341735840e-02
-4.546957463026046753e-02
-1.823652535676956177e-02
5.690551176667213440e-02
-6.289546936750411987e-02
2.894915267825126648e-02
-3.538513183593750000e-02
-4.554580431431531906e-03
-2.929324656724929810e-02
-2.188824815675616264e-03
-4.673937801271677017e-03
-2.306854538619518280e-02
-5.544973537325859070e-02
-1.310590561479330063e-02
-6.739916279911994934e-03
1.151477918028831482e-02
5.561262369155883789e-02
6.971456855535507202e-02
-6.424449384212493896e-03
-2.391151897609233856e-02
6.056282669305801392e-03
-5.697585269808769226e-02
4.044461622834205627e-02
-4.985638335347175598e-02
-2.694094739854335785e-02
-2.858846448361873627e-02
-1.288659311830997467e-02
-3.957634419202804565e-02
6.197877228260040283e-02
-2.087149396538734436e-02
3.872536495327949524e-02
5.017242208123207092e-02
-2.476079575717449188e-02
4.062598198652267456e-02
-2.751596644520759583e-02
-1.912078820168972015e-02
-5.351076647639274597e-02
-3.074906207621097565e-02
-3.557676076889038086e-02
3.163259476423263550e-02
-1.766193285584449768e-02
-7.069607079029083252e-02
-2.365116262808442116e-03
-2.896294929087162018e-02
-4.767731949687004089e-02
-4.711934924125671387e-02
5.163522809743881226e-02
-5.937476083636283875e-02
-5.446366593241691589e-02
3.209796175360679626e-02
4.626477882266044617e-02
-4.402175545692443848e-02
2.256347239017486572e-02
-5.581602826714515686e-02
-5.357987806200981140e-02
4.010832682251930237e-02
-4.070989415049552917e-02
5.542799830436706543e-02
3.879897296428680420e-02
6.812270730733871460e-02
4.501536488533020020e-02
3.087149932980537415e-02
-1.778062433004379272e-02
5.707352608442306519e-02
3.267688676714897156e-02
3.888960555195808411e-02
-6.086954101920127869e-02
4.373701289296150208e-02
-5.918141826987266541e-02
1.101128291338682175e-02
-4.655076190829277039e-02
5.877372808754444122e-03
4.454875737428665161e-02
4.990702494978904724e-02
-8.098155260086059570e-03
-5.245261639356613159e-02
2.135021239519119263e-02
-5.674138665199279785e-03
-4.410787671804428101e-02
-3.101637773215770721e-02
6.795129925012588501e-02
9.043578989803791046e-03
2.607140876352787018e-02
-1.255654077976942062e-02
-3.105422109365463257e-02
-5.947809666395187378e-02
2.232695464044809341e-03
-1.729701645672321320e-02
-4.815430566668510437e-02
-3.166908770799636841e-02
2.281912602484226227e-02
