2.742146849632263184e-01
1.288669258356094360e-01
-1.245776265859603882e-01
8.496791869401931763e-02
2.327040135860443115e-01
-3.494782149791717529e-01
-2.007627785205841064e-01
-1.747924983501434326e-01
1.147025823593139648e-01
-1.169389858841896057e-01
-2.138967663049697876e-01
2.324158698320388794e-01
1.308891624212265015e-01
-1.068190410733222961e-01
5.153436958789825439e-02
-2.132727056741714478e-01
1.799708455801010132e-01
9.453057311475276947e-03
-2.987750172615051270e-01
-2.115858793258666992e-01
-1.565073728561401367e-01
-1.497399061918258667e-01
-2.613940536975860596e-01
9.100429713726043701e-02
-2.250075787305831909e-01
-2.217150181531906128e-01
4.846188053488731384e-02
-1.685040146112442017e-01
-3.261787891387939453e-01
1.053723320364952087e-01
8.606582880020141602e-03
-2.242924124002456665e-01
-1.302027553319931030e-01
-3.368359804153442383e-02
-2.863489985466003418e-01
-3.159382939338684082e-01
1.944617629051208496e-01
5.167612433433532715e-02
-3.212377429008483887e-01
-9.124306589365005493e-02
1.424495130777359009e-01
-3.056170046329498291e-01
-2.105112075805664062e-01
3.296245038509368896e-01
-2.846474647521972656e-01
-1.366679817438125610e-01
2.015596441924571991e-02
2.966909110546112061e-01
-2.219569534063339233e-01
-2.731294631958007812e-01
-3.194002211093902588e-01
4.781407862901687622e-02
-6.530814617872238159e-02
-1.389587204903364182e-02
1.123161017894744873e-01
-1.774936914443969727e-01
-1.299171298742294312e-01
-7.878128439188003540e-02
3.408043682575225830e-01
-2.484557917341589928e-03
-1.163985654711723328e-01
-2.799765169620513916e-01
2.985925786197185516e-02
1.849672794342041016e-01
-8.456413447856903076e-02
2.014561593532562256e-01
-2.878490090370178223e-01
-2.610186040401458740e-01
6.553342938423156738e-02
2.962719798088073730e-01
6.274213641881942749e-02
2.022518515586853027e-01
6.488951295614242554e-02
1.043709814548492432e-01
3.902764245867729187e-02
1.045787930488586426e-01
1.215201914310455322e-01
-2.552729845046997070e-01
-1.211265102028846741e-01
4.064565896987915039e-02
-2.279636263847351074e-01
1.129131987690925598e-01
2.335923314094543457e-01
-1.470666229724884033e-01
3.518617153167724609e-01
-2.620504051446914673e-02
7.097873836755752563e-02
1.584016904234886169e-02
-2.313204407691955566e-01
-3.997431695461273193e-02
1.794099211692810059e-01
-1.169503927230834961e-01
3.180469274520874023e-01
-5.579769238829612732e-02
-3.458583056926727295e-01
-2.590698897838592529e-01
-2.745744585990905762e-01
-2.829575538635253906e-01
6.171473488211631775e-02
3.238126933574676514e-01
-3.529743850231170654e-01
1.042828261852264404e-01
2.266815155744552612e-01
1.407150775194168091e-01
-3.352352678775787354e-01
5.899832397699356079e-02
-7.787223160266876221e-02
-1.884430348873138428e-01
1.580358482897281647e-02
8.512884378433227539e-02
-2.151598185300827026e-01
-3.225828707218170166e-01
-9.682881832122802734e-02
-1.507716923952102661e-01
-3.470912575721740723e-01
1.531070321798324585e-01
-9.762903302907943726e-02
-1.515741944313049316e-01
2.936274558305740356e-02
-3.381476700305938721e-01
-6.985736638307571411e-02
2.492995709180831909e-01
-2.392602860927581787e-01
-5.346313491463661194e-02
1.589339524507522583e-01
2.802304625511169434e-01
2.333688288927078247e-01
2.320024073123931885e-01
-2.454876154661178589e-01
-4.782362282276153564e-02
-5.221701040863990784e-02
-2.568292915821075439e-01
1.727533638477325439e-01
-3.343609869480133057e-01
2.163623273372650146e-01
3.184389173984527588e-01
2.446093112230300903e-01
-6.729094684123992920e-02
1.444587409496307373e-01
-2.588662132620811462e-02
1.743572056293487549e-01
3.244127333164215088e-01
-2.613817751407623291e-01
2.100290805101394653e-01
-1.488714814186096191e-01
8.131954818964004517e-02
-1.372334957122802734e-01
-2.032358348369598389e-01
1.544715762138366699e-01
1.723870784044265747e-01
2.972387075424194336e-01
-3.286519348621368408e-01
1.693875789642333984e-01
-2.221729755401611328e-01
3.472488224506378174e-01
-6.347983330488204956e-02
2.493918389081954956e-01
2.073826789855957031e-01
3.259393572807312012e-01
6.774521619081497192e-02
-2.396887838840484619e-01
3.029473423957824707e-01
3.144904971122741699e-01
-1.816149950027465820e-01
-6.575562804937362671e-02
-1.467167735099792480e-01
-8.755803853273391724e-02
3.380281627178192139e-01
8.578516542911529541e-02
1.710683703422546387e-01
1.837496012449264526e-01
1.568676531314849854e-01
3.268740177154541016e-01
-5.388927087187767029e-02
1.693835109472274780e-01
1.815829873085021973e-01
-2.673946619033813477e-01
-5.056501924991607666e-02
-3.942596167325973511e-02
1.610362231731414795e-01
3.393751084804534912e-01
2.026146054267883301e-01
2.016155272722244263e-01
6.461609899997711182e-02
2.293305695056915283e-01
2.469574958086013794e-01
-1.830386966466903687e-01
2.710619270801544189e-01
-3.029010593891143799e-01
-2.284284979104995728e-01
-3.138575255870819092e-01
2.241908758878707886e-01
-3.443144857883453369e-01
3.157116472721099854e-01
-1.032684594392776489e-01
-1.640359312295913696e-01
-2.496420890092849731e-01
8.649240247905254364e-03
2.369250208139419556e-01
3.195415735244750977e-01
