4.022207483649253845e-02
6.198010221123695374e-02
3.918869048357009888e-02
3.804198652505874634e-02
4.857667908072471619e-02
8.847279474139213562e-03
3.154006600379943848e-02
1.421553734689950943e-02
6.923445314168930054e-02
-4.084901884198188782e-02
-4.642727598547935486e-02
3.958768211305141449e-03
-3.072452917695045471e-02
-1.128691434860229492e-02
3.115586005151271820e-02
6.706332415342330933e-02
-1.667089946568012238e-02
-3.216182440519332886e-02
-1.564696617424488068e-02
1.642822287976741791e-02
2.312365919351577759e-02
3.650258481502532959e-02
2.241556346416473389e-02
5.691646039485931396e-02
7.706705015152692795e-03
-3.167196642607450485e-03
6.180604919791221619e-02
-5.825686082243919373e-02
-2.699251659214496613e-02
-2.610316313803195953e-02
1.156600471585988998e-02
5.061938241124153137e-02
-7.040197029709815979e-03
7.465888746082782745e-03
4.366137832403182983e-02
5.473281722515821457e-03
-1.960062608122825623e-02
-2.637535147368907928e-02
-5.513086915016174316e-02
-2.156768739223480225e-02
-8.200020529329776764e-03
4.071756452322006226e-02
4.031960293650627136e-02
4.519467800855636597e-02
-4.968772456049919128e-02
-2.751448191702365875e-02
7.070626318454742432e-02
1.455892063677310944e-02
1.477281935513019562e-02
1.325128227472305298e-02
3.513147681951522827e-02
-4.637988656759262085e-02
5.713901296257972717e-02
-1.139428652822971344e-02
-1.340976729989051819e-02
-9.013110771775245667e-03
-5.344066768884658813e-02
6.097400560975074768e-02
-4.582830145955085754e-02
-6.410553306341171265e-02
5.262782424688339233e-02
5.931967869400978088e-02
6.014982983469963074e-02
6.282058358192443848e-02
6.074320897459983826e-02
5.339340865612030029e-02
4.052522778511047363e-02
3.109754994511604309e-02
-4.304973408579826355e-02
4.648861661553382874e-02
4.580861330032348633e-02
-1.473903656005859375e-02
6.737704575061798096e-02
-3.345380350947380066e-02
-5.580400303006172180e-02
-3.017628192901611328e-02
-6.953795254230499268e-02
-6.440429389476776123e-02
-6.533227115869522095e-02
2.565488591790199280e-02
-5.911061912775039673e-02
-7.999117486178874969e-03
3.283525630831718445e-02
2.263831673189997673e-03
2.197871170938014984e-02
-3.383277216926217079e-03
2.241644449532032013e-02
2.849647402763366699e-02
-4.996104910969734192e-02
-4.352425038814544678e-02
4.237699881196022034e-02
2.270329743623733521e-02
1.644571125507354736e-02
-9.646772406995296478e-03
2.108048461377620697e-02
-3.772435709834098816e-02
1.016341801732778549e-02
2.980638854205608368e-02
-1.699047721922397614e-02
3.564654290676116943e-02
1.338128745555877686e-02
-6.762236356735229492e-02
5.362690612673759460e-02
-3.142273426055908203e-02
-3.997966647148132324e-02
-7.002326846122741699e-02
6.092009320855140686e-02
-3.046037070453166962e-02
-5.426358804106712341e-02
-5.700218956917524338e-03
-4.952291026711463928e-02
-5.779718235135078430e-02
-4.514558613300323486e-02
1.288071926683187485e-02
6.245399639010429382e-02
5.765096843242645264e-02
-5.924469232559204102e-02
6.091823056340217590e-02
3.255498036742210388e-02
9.732475504279136658e-03
-8.645273745059967041e-03
-3.705227002501487732e-02
2.356551401317119598e-02
-6.302789598703384399e-02
-3.706259652972221375e-02
1.694694161415100098e-02
-6.103632599115371704e-02
1.646009832620620728e-02
1.136996317654848099e-02
3.889826685190200806e-02
-6.420606374740600586e-02
2.351753413677215576e-02
5.481538549065589905e-02
-6.111027300357818604e-02
-7.384076248854398727e-03
6.565004587173461914e-02
5.995269864797592163e-02
1.182285975664854050e-02
9.514675475656986237e-03
6.072695553302764893e-02
2.361589483916759491e-02
-3.450883552432060242e-02
-5.900300294160842896e-02
4.816035553812980652e-02
5.202021077275276184e-02
-1.477680448442697525e-02
-1.446744863642379642e-04
2.682976890355348587e-03
-3.006049431860446930e-03
2.251108177006244659e-02
2.622012607753276825e-02
-5.288317915983498096e-04
-1.857784576714038849e-02
1.150323150795884430e-04
-9.849001653492450714e-03
6.746488809585571289e-02
5.939530208706855774e-02
-6.771665066480636597e-02
9.023627266287803650e-03
1.832248270511627197e-02
5.668187886476516724e-02
4.735674336552619934e-02
-6.885359436273574829e-02
-4.047601297497749329e-02
-2.122106961905956268e-02
6.156974285840988159e-02
-1.860279031097888947e-02
1.805575378239154816e-02
4.994918033480644226e-02
-1.239076722413301468e-02
-4.221043549478054047e-03
-2.117570675909519196e-02
-4.663518443703651428e-02
8.837275207042694092e-03
-5.387299880385398865e-02
-2.060307748615741730e-02
-1.095982361584901810e-02
8.739984594285488129e-03
6.881621479988098145e-02
8.633189834654331207e-03
4.130325093865394592e-02
-4.510113596916198730e-02
-1.511143427342176437e-02
2.902776468545198441e-03
4.566745460033416748e-02
-3.388017788529396057e-02
-6.855546683073043823e-02
-1.371500547975301743e-02
6.441555917263031006e-02
-2.282008901238441467e-02
-1.104134228080511093e-02
-6.211974099278450012e-02
-4.591583833098411560e-02
2.472077682614326477e-02
6.041518971323966980e-02
-4.125842079520225525e-02
-3.427570685744285583e-02
5.815514549612998962e-02
-5.928194895386695862e-02
4.585219919681549072e-02
