-2.941405177116394043e-01
2.618146836757659912e-01
-2.047315984964370728e-01
4.228468984365463257e-02
3.410172164440155029e-01
1.481106597930192947e-02
-1.483147591352462769e-01
-2.337842248380184174e-02
-2.611327767372131348e-01
-1.486674994230270386e-01
2.400823682546615601e-02
-1.885172277688980103e-01
-8.472841978073120117e-02
-1.197736710309982300e-03
-2.467245422303676605e-02
-2.997655272483825684e-01
-2.078987360000610352e-01
2.584607601165771484e-01
6.307692825794219971e-02
-9.689252823591232300e-02
-1.436889171600341797e-01
-2.262036502361297607e-02
-1.305634081363677979e-01
2.996587157249450684e-01
1.214750632643699646e-01
2.211309373378753662e-01
2.140170782804489136e-01
-1.450584232807159424e-01
-7.960160076618194580e-02
3.131695389747619629e-01
-2.287044525146484375e-01
-1.157066375017166138e-01
1.187844723463058472e-01
-2.329756915569305420e-01
1.091990694403648376e-01
5.804418772459030151e-02
-1.391520816832780838e-02
-2.497929483652114868e-01
3.363110721111297607e-01
-3.430123627185821533e-01
-1.851203441619873047e-01
2.815545797348022461e-01
2.502246499061584473e-01
8.107559382915496826e-02
7.826913148164749146e-02
-2.287762761116027832e-01
-1.745609790086746216e-01
-1.971725523471832275e-01
2.252039611339569092e-01
6.464316695928573608e-02
-2.249644137918949127e-03
-3.316673636436462402e-01
8.810287714004516602e-02
3.332621157169342041e-01
3.071841597557067871e-01
-2.677497081458568573e-02
9.156447649002075195e-02
-1.430361419916152954e-01
1.642897725105285645e-01
-2.293299734592437744e-01
-1.102152094244956970e-01
-1.436057984828948975e-01
-7.145474851131439209e-02
-9.054990112781524658e-02
-1.651221513748168945e-01
1.191132888197898865e-01
-3.155594468116760254e-01
2.610154747962951660e-01
-9.919255040585994720e-03
-2.137155085802078247e-01
2.377840280532836914e-01
5.089503154158592224e-02
2.110220491886138916e-01
1.137456893920898438e-01
1.695006936788558960e-01
1.173721477389335632e-01
9.985105134546756744e-03
-1.390164047479629517e-01
-2.495383769273757935e-01
1.001115292310714722e-01
-3.739516809582710266e-02
3.004627525806427002e-01
1.580771952867507935e-01
-3.127478361129760742e-01
7.761695235967636108e-02
-3.784725368022918701e-01
-3.622008860111236572e-01
-1.946578621864318848e-01
-9.737992286682128906e-02
-3.470522165298461914e-01
-2.870090007781982422e-01
3.186866641044616699e-01
2.432058751583099365e-01
3.048541843891143799e-01
-1.507457941770553589e-01
-3.458002507686614990e-01
2.522277534008026123e-01
1.963896602392196655e-01
3.151262700557708740e-01
1.021362096071243286e-01
-2.199566662311553955e-01
7.800464332103729248e-02
-2.264844775199890137e-01
-3.498793840408325195e-01
-2.397126108407974243e-01
2.362850606441497803e-01
-7.392255961894989014e-02
3.453919589519500732e-01
1.343448758125305176e-01
1.973022334277629852e-02
-9.352680295705795288e-02
-5.965636298060417175e-02
2.590150237083435059e-01
-3.207543194293975830e-01
-1.094624921679496765e-01
-1.892108917236328125e-01
-1.227152943611145020e-01
-2.113877385854721069e-01
-8.128802292048931122e-03
9.274104982614517212e-02
-8.598418533802032471e-02
1.575992852449417114e-01
-2.855699062347412109e-01
-4.739346355199813843e-02
1.989843398332595825e-01
-1.971663683652877808e-01
-4.330883920192718506e-02
6.071766838431358337e-03
3.131186962127685547e-01
-2.656027674674987793e-01
1.743006855249404907e-01
3.028113543987274170e-01
1.552152633666992188e-01
2.335133105516433716e-01
8.030002564191818237e-02
-2.455856949090957642e-01
-3.202584683895111084e-01
-1.388057619333267212e-01
-2.615108191967010498e-01
-1.803314685821533203e-01
5.780326947569847107e-02
-1.433591395616531372e-01
1.037359610199928284e-01
-9.918879717588424683e-02
-1.872806549072265625e-01
6.840825080871582031e-02
2.427927106618881226e-01
-3.021445274353027344e-01
-1.712204962968826294e-01
1.691540628671646118e-01
