-4.271115362644195557e-02
-2.452382119372487068e-03
-2.875662595033645630e-02
-6.141222640872001648e-02
2.779697999358177185e-02
3.247799724340438843e-02
-3.883001208305358887e-02
-7.110642641782760620e-02
-7.494638115167617798e-02
2.497488260269165039e-02
-6.451298296451568604e-02
-7.108786702156066895e-02
2.545243874192237854e-02
8.053287118673324585e-02
6.117735803127288818e-02
4.297234117984771729e-02
8.994824253022670746e-03
-6.996948271989822388e-02
2.750717103481292725e-02
-4.638625308871269226e-02
-5.450331792235374451e-02
5.178338661789894104e-02
7.920976728200912476e-02
-2.282587811350822449e-02
4.538652300834655762e-02
6.621129810810089111e-02
-9.644716978073120117e-03
-2.089129202067852020e-02
4.400324821472167969e-02
-4.856652021408081055e-02
2.592646516859531403e-02
-6.653402000665664673e-02
-4.866650700569152832e-02
-1.697718352079391479e-02
1.883404143154621124e-02
1.591986417770385742e-02
1.444198191165924072e-02
1.266622263938188553e-02
-1.622460223734378815e-02
-6.791345030069351196e-02
-6.702399253845214844e-02
-1.571957580745220184e-02
-8.999122306704521179e-03
5.033870041370391846e-02
3.016220219433307648e-02
-7.539922744035720825e-02
2.821751125156879425e-02
3.745108144357800484e-03
4.565148556139320135e-04
2.763301692903041840e-02
-7.071376591920852661e-02
6.923093646764755249e-02
3.894631937146186829e-02
-5.817285552620887756e-02
7.196630537509918213e-02
-6.855936720967292786e-03
4.558964073657989502e-02
1.486371911596506834e-04
3.593792021274566650e-02
5.009047687053680420e-02
4.288169369101524353e-02
6.550786644220352173e-02
7.160172797739505768e-03
-2.859207428991794586e-02
3.427033498883247375e-02
5.295080319046974182e-02
6.142634525895118713e-02
-3.144387528300285339e-02
4.840698838233947754e-02
-5.901959538459777832e-02
2.679520286619663239e-03
-4.467982053756713867e-02
-6.589044630527496338e-02
4.107322543859481812e-02
-1.773054711520671844e-02
-5.899408459663391113e-02
-8.347335271537303925e-03
-7.013850659132003784e-02
7.766216993331909180e-02
6.786514073610305786e-02
7.722560316324234009e-02
-2.179027721285820007e-02
2.701440081000328064e-02
3.489673882722854614e-02
2.037480287253856659e-02
-7.976384460926055908e-02
-1.361635327339172363e-02
8.005809783935546875e-02
1.540271565318107605e-02
1.364422845654189587e-03
3.936193883419036865e-02
2.494378015398979187e-02
-2.221156470477581024e-02
-1.263833511620759964e-02
-2.321223542094230652e-02
6.164673343300819397e-02
-1.669300581852439791e-05
2.122008055448532104e-02
1.230546552687883377e-02
-3.082937002182006836e-02
-2.753884717822074890e-02
4.466940835118293762e-02
4.422592744231224060e-02
3.284798189997673035e-02
-4.767340049147605896e-02
3.531339392066001892e-02
1.019673049449920654e-02
4.213055595755577087e-02
4.345003515481948853e-02
-8.289842866361141205e-03
2.857101149857044220e-03
-5.444699525833129883e-02
3.666957467794418335e-02
5.134434625506401062e-02
-7.037943601608276367e-02
-6.356473267078399658e-02
5.197683349251747131e-02
5.113804340362548828e-02
-3.718067705631256104e-02
-6.291063502430915833e-03
-6.755357235670089722e-02
4.019301757216453552e-02
5.299225449562072754e-02
3.411972522735595703e-02
7.109723240137100220e-02
3.681651875376701355e-02
-4.247234016656875610e-02
4.857225716114044189e-02
-1.893129758536815643e-02
4.429297894239425659e-02
-5.456649884581565857e-02
-8.593526668846607208e-03
-4.564784467220306396e-02
7.111788541078567505e-02
-6.423618644475936890e-02
8.020664006471633911e-02
-5.719614564441144466e-04
-3.262890875339508057e-02
7.839040458202362061e-02
-7.532071787863969803e-03
7.704333402216434479e-03
1.558490283787250519e-02
6.650313735008239746e-02
2.029214426875114441e-02
-1.068679336458444595e-02
2.978020533919334412e-02
-2.993276156485080719e-02
-5.531033501029014587e-02
-6.970939785242080688e-02
-6.207159720361232758e-03
