-7.047880440950393677e-02
-8.242268115282058716e-03
-1.565525890327990055e-03
4.794719815254211426e-02
2.069244533777236938e-02
-5.670008808374404907e-02
1.037919614464044571e-02
-5.576004087924957275e-02
-1.514543686062097549e-02
6.154368072748184204e-02
-5.626787897199392319e-03
4.433050751686096191e-02
-2.208957448601722717e-02
-1.608943566679954529e-02
2.034919895231723785e-02
2.059595100581645966e-02
5.790827050805091858e-02
5.622935667634010315e-02
-2.154475823044776917e-02
-1.198341790586709976e-02
-2.907372079789638519e-02
2.364711508562322706e-05
2.654631622135639191e-02
5.069059133529663086e-02
-4.834083840250968933e-03
6.458542495965957642e-02
3.100484237074851990e-02
9.382574819028377533e-03
2.337698265910148621e-02
7.138132117688655853e-03
-5.956734716892242432e-02
-3.008798882365226746e-02
-1.080827135592699051e-02
-3.872025758028030396e-02
-4.921487718820571899e-02
5.110053718090057373e-02
6.034678965806961060e-02
-1.880888448795303702e-04
-2.595346979796886444e-02
1.558041013777256012e-02
-5.475935712456703186e-02
2.343745343387126923e-02
-4.602684173732995987e-03
-6.209149211645126343e-02
-2.320412732660770416e-02
-3.377998946234583855e-03
-5.715629085898399353e-02
-1.366763655096292496e-02
4.735533893108367920e-02
2.522452548146247864e-02
3.592552151530981064e-03
-3.901772573590278625e-02
3.666178788989782333e-03
-2.747245319187641144e-02
-1.067043747752904892e-02
5.030670762062072754e-02
3.401331137865781784e-03
-5.403977632522583008e-02
-3.309588134288787842e-02
-5.544275045394897461e-02
-2.077797800302505493e-02
1.060629170387983322e-02
-4.672155156731605530e-02
9.093046188354492188e-03
1.952312141656875610e-02
5.963181331753730774e-02
6.916844286024570465e-04
4.322755709290504456e-02
-6.089150905609130859e-02
3.820008412003517151e-02
4.806858673691749573e-02
2.253735903650522232e-03
-4.176398366689682007e-02
5.925353616476058960e-02
-2.484082430601119995e-02
-5.152267217636108398e-02
-4.621828906238079071e-03
5.885050166398286819e-03
-5.872766673564910889e-02
-2.760897204279899597e-02
1.208373904228210449e-02
-2.184141054749488831e-02
9.287598368246108294e-05
-5.402624234557151794e-02
3.151323646306991577e-02
1.356361433863639832e-02
4.439684748649597168e-02
2.230871282517910004e-02
-4.747636243700981140e-02
-4.728700965642929077e-02
-4.153808578848838806e-03
4.098263010382652283e-02
3.206761181354522705e-02
4.017040133476257324e-02
-5.608003120869398117e-03
-2.012189105153083801e-02
-1.660724170506000519e-02
3.398408368229866028e-02
-2.735013328492641449e-02
-1.302033849060535431e-02
-2.517251856625080109e-02
-5.213285982608795166e-02
5.236399918794631958e-02
-2.907387167215347290e-02
2.387022599577903748e-02
-6.140071898698806763e-02
-5.199532583355903625e-02
-4.094061255455017090e-02
-6.014484539628028870e-02
-3.643801063299179077e-02
-2.863454632461071014e-02
-2.770363539457321167e-02
3.705881768837571144e-03
9.939134120941162109e-03
-4.161819443106651306e-02
3.811816498637199402e-02
-5.214998498558998108e-02
4.082718864083290100e-02
-2.557311207056045532e-02
-2.266420610249042511e-02
3.263955935835838318e-02
-6.840481609106063843e-02
-1.712364517152309418e-02
-2.343401126563549042e-02
-3.854758664965629578e-02
-5.999141559004783630e-02
-9.486248716711997986e-03
4.253566637635231018e-02
-2.476174011826515198e-02
4.037272557616233826e-02
-6.226259842514991760e-02
-3.697813488543033600e-03
5.232725758105516434e-03
2.042837999761104584e-02
1.741549745202064514e-02
6.179202347993850708e-02
4.443051293492317200e-02
2.491038851439952850e-02
6.218737363815307617e-02
1.529069617390632629e-02
6.717491149902343750e-02
1.320858392864465714e-02
-5.342683754861354828e-03
-6.694061309099197388e-02
-7.021221518516540527e-02
-1.466010976582765579e-02
8.006870746612548828e-03
-2.438214607536792755e-02
5.503556132316589355e-02
9.982339106500148773e-03
3.764513134956359863e-02
3.043036162853240967e-02
-6.762158125638961792e-02
4.473583772778511047e-02
-1.903494261205196381e-02
6.337623298168182373e-02
1.154137123376131058e-02
-3.271911665797233582e-02
4.271954670548439026e-02
6.328503787517547607e-02
-6.801876425743103027e-02
2.396306808805093169e-04
-6.522816419601440430e-02
4.922364652156829834e-02
1.892906613647937775e-02
-3.971233032643795013e-03
-5.954039469361305237e-02
4.928654432296752930e-02
-3.821979742497205734e-03
-2.179976366460323334e-02
4.867260903120040894e-02
-4.456724599003791809e-02
2.477083727717399597e-02
-1.003846060484647751e-02
-6.352744251489639282e-02
3.493378683924674988e-02
5.021101236343383789e-02
-6.983482092618942261e-02
1.838475838303565979e-02
-5.670998618006706238e-02
4.533448070287704468e-02
5.109471827745437622e-02
-6.353531777858734131e-02
-2.154744416475296021e-02
6.100205332040786743e-02
-4.046574607491493225e-02
2.871607802808284760e-02
6.681804358959197998e-02
-5.849122628569602966e-02
7.382677868008613586e-03
-5.295415874570608139e-03
7.444300688803195953e-03
5.336042866110801697e-02
-6.094061303883790970e-03
7.374900858849287033e-03
3.760976716876029968e-02
6.645277142524719238e-02
2.265394851565361023e-02
6.617138534784317017e-02
2.638269797898828983e-04
