2.558836638927459717e-01
-1.200421527028083801e-01
1.031254008412361145e-01
-3.500426886603236198e-03
-2.659972012042999268e-01
-1.435093432664871216e-01
4.351885616779327393e-02
-2.498593181371688843e-01
2.394583225250244141e-01
2.227922379970550537e-01
3.364386558532714844e-01
2.928636670112609863e-01
2.092219889163970947e-01
-1.906640678644180298e-01
-1.209869757294654846e-01
1.463088095188140869e-01
3.735191822052001953e-01
-3.035117387771606445e-01
3.152069449424743652e-01
2.202802747488021851e-01
-1.245361119508743286e-01
3.721192777156829834e-01
3.248115256428718567e-02
-1.012332290410995483e-01
8.986395597457885742e-02
2.731996178627014160e-01
3.618725240230560303e-01
-2.146506160497665405e-01
-8.660479635000228882e-02
-3.544556796550750732e-01
-1.049070432782173157e-01
-6.976394355297088623e-02
3.775670528411865234e-01
-2.348704189062118530e-01
1.933733187615871429e-02
2.782449126243591309e-01
-1.932880282402038574e-01
2.624754793941974640e-02
8.795732259750366211e-02
-1.296712900511920452e-03
2.691226601600646973e-01
-3.704249262809753418e-01
2.865788042545318604e-01
1.242888420820236206e-01
-1.357486546039581299e-01
-7.308112829923629761e-02
-3.736929595470428467e-01
2.285311520099639893e-01
-1.144812926650047302e-01
-3.216334283351898193e-01
3.079051077365875244e-01
-6.199168041348457336e-02
-2.347687482833862305e-01
-3.694040477275848389e-01
-2.128364890813827515e-01
-2.669434845447540283e-01
1.200588978826999664e-02
-1.632038801908493042e-01
2.742033898830413818e-01
-3.183044195175170898e-01
-3.348319232463836670e-01
-1.007091477513313293e-01
4.062267392873764038e-02
-1.616793801076710224e-03
5.477640312165021896e-03
-2.313689142465591431e-01
-8.435676246881484985e-02
1.063968613743782043e-01
2.096611559391021729e-01
-1.138110458850860596e-02
3.212752044200897217e-01
-2.180585265159606934e-01
-2.612535655498504639e-01
-8.614622801542282104e-02
2.633016705513000488e-01
-1.364374905824661255e-01
-2.402403503656387329e-01
1.513772755861282349e-01
-3.346225619316101074e-01
1.615463346242904663e-01
-2.716682478785514832e-02
2.954392433166503906e-01
-2.011623829603195190e-01
6.786248832941055298e-02
3.458278477191925049e-01
-3.731372356414794922e-01
4.579704627394676208e-02
-3.522456586360931396e-01
-3.085619807243347168e-01
3.213620483875274658e-01
8.646247535943984985e-02
2.534509003162384033e-01
-9.671810269355773926e-02
1.201120764017105103e-01
1.315206587314605713e-01
1.814641356468200684e-01
3.381889164447784424e-01
3.689094483852386475e-01
-2.695163190364837646e-01
2.574428319931030273e-01
-7.538669556379318237e-02
-1.230493560433387756e-01
-2.014855295419692993e-01
-1.780806034803390503e-01
1.741434633731842041e-01
3.437860310077667236e-01
-2.822377085685729980e-01
1.249876767396926880e-01
2.855156064033508301e-01
-1.496036648750305176e-01
-3.499345183372497559e-01
1.162447854876518250e-01
3.605646193027496338e-01
-2.087457925081253052e-01
-1.644218266010284424e-01
1.232008337974548340e-01
2.598202228546142578e-02
-2.185882925987243652e-01
-4.805500432848930359e-02
3.381773829460144043e-01
-2.055576443672180176e-01
-3.246929049491882324e-01
-1.194941028952598572e-01
-3.768040835857391357e-01
6.630854308605194092e-02
-4.729551449418067932e-02
1.967268437147140503e-01
9.177923202514648438e-02
-1.378482282161712646e-01
-1.576771289110183716e-01
1.227120403200387955e-03
1.801415830850601196e-01
-4.934755712747573853e-02
-3.910343628376722336e-03
2.180009484291076660e-01
2.540590465068817139e-01
3.259395360946655273e-01
2.664005756378173828e-01
3.352029249072074890e-02
3.061199933290481567e-02
7.508407533168792725e-02
-1.662341654300689697e-01
-2.538142204284667969e-01
1.226842626929283142e-01
2.486993968486785889e-01
2.284272462129592896e-01
-1.978063881397247314e-01
1.396474838256835938e-01
2.106134742498397827e-01
7.336614280939102173e-02
1.047582104802131653e-01
-1.742231845855712891e-02
1.887374073266983032e-01
-1.119164377450942993e-01
-2.655269801616668701e-01
1.474774330854415894e-01
-2.866886928677558899e-02
-5.908375605940818787e-02
1.849200278520584106e-01
1.895202696323394775e-01
-3.377792611718177795e-02
2.139341086149215698e-02
3.487601280212402344e-01
2.031953632831573486e-01
-1.272739171981811523e-01
-3.191758692264556885e-01
-2.305619716644287109e-01
4.439592361450195312e-02
-1.549677997827529907e-01
1.913947053253650665e-02
-3.684499859809875488e-02
2.347849607467651367e-01
2.296988666057586670e-01
3.711096048355102539e-01
-2.778776586055755615e-01
-1.591695249080657959e-01
2.655667364597320557e-01
2.698089182376861572e-01
-1.969952881336212158e-02
-2.476282715797424316e-01
1.974896937608718872e-01
1.343172639608383179e-01
2.901123166084289551e-01
2.163795530796051025e-01
9.908815473318099976e-02
-8.185239136219024658e-02
-1.497997492551803589e-01
-6.014923751354217529e-02
1.775092780590057373e-01
-1.411637663841247559e-01
3.446270227432250977e-01
3.682861030101776123e-01
2.657454274594783783e-02
1.761647462844848633e-01
8.433040231466293335e-02
1.520498543977737427e-01
-1.232957318425178528e-01
2.130093574523925781e-01
-2.793834507465362549e-01
1.065621003508567810e-01
