1.865204982459545135e-02
-2.628052830696105957e-01
3.302556872367858887e-01
-2.873755395412445068e-01
1.762228757143020630e-01
4.403563216328620911e-02
-1.195925027132034302e-01
2.680898010730743408e-01
3.428438305854797363e-02
-3.250748515129089355e-01
2.129933834075927734e-01
-1.138462573289871216e-01
-1.402857601642608643e-01
-1.828535944223403931e-01
-7.353302836418151855e-02
-2.336402386426925659e-01
2.197981812059879303e-02
-2.336844429373741150e-02
2.493779212236404419e-01
-3.604472577571868896e-01
-2.355332821607589722e-01
-2.823226451873779297e-01
-2.635775506496429443e-01
-1.151511669158935547e-01
3.388873636722564697e-01
2.356057018041610718e-01
-2.922217547893524170e-01
3.015848398208618164e-01
1.796755194664001465e-01
5.298436060547828674e-02
2.924277484416961670e-01
-3.095386624336242676e-01
-1.857240796089172363e-01
2.760089933872222900e-01
4.467400908470153809e-02
-5.932797491550445557e-02
-1.357222497463226318e-01
2.605144679546356201e-01
-5.545474961400032043e-02
7.712603360414505005e-02
2.095195651054382324e-01
-2.555053234100341797e-01
-3.071604110300540924e-02
1.068369895219802856e-01
-2.114902734756469727e-01
7.523895800113677979e-02
-1.619501709938049316e-01
3.560610115528106689e-02
3.466439545154571533e-01
-1.530882865190505981e-01
