1.097432821989059448e-01
-4.624010995030403137e-02
5.144286528229713440e-02
2.924280241131782532e-02
1.018899902701377869e-01
1.746714301407337189e-02
1.184670999646186829e-01
-7.416959106922149658e-02
-1.070033684372901917e-01
-7.695902884006500244e-02
-8.976384066045284271e-03
-2.228708378970623016e-02
-1.035160496830940247e-01
7.933256030082702637e-02
4.775430634617805481e-02
2.002462372183799744e-02
2.848029509186744690e-02
-1.122673973441123962e-01
-5.972931534051895142e-02
-2.293982170522212982e-02
1.234258115291595459e-01
-7.313243299722671509e-02
-6.419172883033752441e-02
-4.866831749677658081e-02
7.619644049555063248e-03
3.873702138662338257e-02
-8.096872270107269287e-02
6.051262095570564270e-02
-5.568910762667655945e-02
-8.738794177770614624e-02
-9.029617905616760254e-02
1.010794267058372498e-01
1.405126750469207764e-01
1.316454559564590454e-01
4.002023488283157349e-02
1.475545614957809448e-01
-1.152999326586723328e-01
-1.057504490017890930e-01
-7.523748278617858887e-02
-1.320999711751937866e-01
-1.320707052946090698e-01
-4.606910794973373413e-02
7.874301075935363770e-02
-1.215361282229423523e-01
8.765918761491775513e-02
6.118988245725631714e-02
7.996882498264312744e-02
9.687639772891998291e-02
-3.324499353766441345e-02
-3.850310295820236206e-02
