2.715424001216888428e-01
-2.101057209074497223e-02
-6.548817455768585205e-02
-8.107887953519821167e-02
-2.581351399421691895e-01
-3.455720096826553345e-02
-9.579211473464965820e-02
-2.430465221405029297e-01
-1.534371078014373779e-01
1.527632176876068115e-01
1.501945406198501587e-01
-1.708035618066787720e-01
-2.603818774223327637e-01
-2.389048635959625244e-01
1.746885776519775391e-01
2.607574164867401123e-01
2.102191895246505737e-01
2.256640046834945679e-01
-1.119594871997833252e-01
-1.140415109694004059e-02
3.218798041343688965e-01
-2.536090910434722900e-01
1.201142519712448120e-01
-2.605360150337219238e-01
-3.260862529277801514e-01
-1.970989704132080078e-01
1.353045403957366943e-01
2.644728720188140869e-01
-1.380793601274490356e-01
2.575897574424743652e-01
-3.266739249229431152e-01
2.384870797395706177e-01
3.273888826370239258e-01
1.583106517791748047e-01
3.112792409956455231e-02
1.716529130935668945e-01
-6.539542227983474731e-02
-1.818354427814483643e-01
-1.842930465936660767e-01
-1.240928992629051208e-01
-1.317803841084241867e-02
4.291694611310958862e-02
-1.522431969642639160e-01
-1.767316162586212158e-01
1.474041193723678589e-01
1.805257201194763184e-01
-1.629195213317871094e-01
-5.554293096065521240e-02
3.098899722099304199e-01
-6.566700339317321777e-02
-2.999315597116947174e-02
-1.416221857070922852e-01
1.261710375547409058e-01
-2.151526063680648804e-01
-2.025765329599380493e-01
-2.611234486103057861e-01
-4.976917989552021027e-03
-1.092349588871002197e-01
1.874304562807083130e-01
-6.036521494388580322e-02
-1.067711412906646729e-01
-2.672643065452575684e-01
-1.640342026948928833e-01
-1.283903717994689941e-01
2.162425369024276733e-01
1.674812100827693939e-02
3.110163509845733643e-01
-3.307195305824279785e-01
-2.733728885650634766e-01
9.477191418409347534e-02
2.638183534145355225e-01
-6.647921353578567505e-02
1.145922169089317322e-01
8.561880886554718018e-02
-1.581632196903228760e-01
-2.821230888366699219e-01
-3.353868126869201660e-01
1.602303236722946167e-01
6.066557765007019043e-02
2.427408844232559204e-01
1.567344069480895996e-01
1.277344524860382080e-01
-8.802334219217300415e-02
-2.682886421680450439e-01
-2.745400071144104004e-01
-2.958635389804840088e-01
7.118266820907592773e-02
1.515275537967681885e-01
-4.121111705899238586e-02
2.394500225782394409e-01
1.429568976163864136e-01
3.257655203342437744e-01
-1.719255931675434113e-02
-3.110992610454559326e-01
3.123795092105865479e-01
-5.817876756191253662e-02
2.309528887271881104e-01
2.015727460384368896e-01
5.529085546731948853e-02
1.885442286729812622e-01
6.070609204471111298e-03
2.044859081506729126e-01
3.842829167842864990e-02
-1.422972679138183594e-01
4.474978521466255188e-02
1.408597528934478760e-01
-2.029546722769737244e-02
-6.699267029762268066e-02
8.193283528089523315e-02
2.933503985404968262e-01
9.629113227128982544e-02
1.641083657741546631e-01
1.212454959750175476e-01
2.591138184070587158e-01
8.316211402416229248e-03
9.079080075025558472e-02
1.034246161580085754e-01
3.185405731201171875e-01
2.867970764636993408e-01
-2.229705899953842163e-01
5.524986982345581055e-02
7.871175557374954224e-02
1.999892741441726685e-01
-9.743534773588180542e-02
-1.439816951751708984e-01
-1.702196598052978516e-01
2.864945232868194580e-01
4.768823087215423584e-02
-2.195951044559478760e-01
1.168727502226829529e-01
-2.336800545454025269e-01
-3.047367632389068604e-01
1.752169281244277954e-01
-1.135692559182643890e-02
3.169213235378265381e-01
1.469318871386349201e-03
2.876130938529968262e-01
4.174777120351791382e-02
-2.823848724365234375e-01
7.927017658948898315e-02
-2.048079520463943481e-01
-7.117176800966262817e-02
-2.945287711918354034e-02
-3.049250245094299316e-01
-7.230500131845474243e-02
2.454000562429428101e-01
-1.409847736358642578e-01
-7.878477126359939575e-02
-2.251537889242172241e-01
2.287818491458892822e-01
-2.595669031143188477e-01
-2.079762816429138184e-01
-1.244395896792411804e-01
-2.396755367517471313e-01
-1.496545523405075073e-01
-5.761040747165679932e-02
-1.632998883724212646e-01
2.918457798659801483e-02
-1.060125976800918579e-01
-2.530032582581043243e-02
-1.977721974253654480e-02
1.956345736980438232e-01
2.798170447349548340e-01
-1.038531884551048279e-01
-1.116184964776039124e-01
1.092647612094879150e-01
2.100633531808853149e-01
1.403943896293640137e-01
-1.475070863962173462e-01
-1.187157556414604187e-01
-8.501319587230682373e-02
7.400159537792205811e-02
-2.828960418701171875e-01
-6.992346793413162231e-02
9.387486614286899567e-03
-7.579235732555389404e-02
1.829527914524078369e-01
-1.372012794017791748e-01
5.884397774934768677e-03
2.002789825201034546e-01
1.698759645223617554e-01
2.879106700420379639e-01
1.988234929740428925e-02
2.025051414966583252e-01
-3.142617940902709961e-01
-1.937483847141265869e-01
3.163367509841918945e-01
-2.048355638980865479e-01
1.839212179183959961e-01
1.026048362255096436e-01
-8.228418976068496704e-02
4.835523292422294617e-02
-1.595232337713241577e-01
-2.090493440628051758e-01
-3.186579346656799316e-01
9.197595715522766113e-02
-2.850322425365447998e-01
-2.497550100088119507e-01
-2.675167024135589600e-01
-1.097459122538566589e-01
