5.168844014406204224e-02
5.871429666876792908e-02
3.503089770674705505e-02
5.623166635632514954e-02
5.614440143108367920e-02
-5.245679989457130432e-03
-2.325480803847312927e-02
-1.452834624797105789e-02
5.375243723392486572e-03
-3.366102650761604309e-02
-2.191329374909400940e-02
-3.439129563048481941e-03
-3.856177628040313721e-02
-2.269812487065792084e-02
6.573996692895889282e-02
-2.512440085411071777e-02
-3.548001125454902649e-02
5.955210421234369278e-03
2.234775573015213013e-02
5.498142167925834656e-02
-4.363320022821426392e-02
-1.182823441922664642e-02
5.912303924560546875e-02
-6.713607162237167358e-02
-1.806091144680976868e-02
-4.578495398163795471e-02
-3.968358039855957031e-02
1.282422058284282684e-02
-2.100422047078609467e-02
4.825218394398689270e-02
-4.929708316922187805e-02
-5.163288488984107971e-02
2.467865869402885437e-02
-3.672565519809722900e-02
-3.862993046641349792e-02
-3.408495709300041199e-02
-3.105212561786174774e-02
5.702408775687217712e-02
4.496978223323822021e-02
-5.307775735855102539e-02
-9.870272129774093628e-03
-3.492408990859985352e-02
-2.623149007558822632e-02
-5.420192703604698181e-02
4.995891451835632324e-02
3.074114909395575523e-03
-5.014374479651451111e-02
1.432423479855060577e-02
-1.411872822791337967e-02
-4.872287064790725708e-02
2.116028219461441040e-02
3.649662807583808899e-02
-2.764505567029118538e-03
-1.049703545868396759e-02
6.802038103342056274e-02
5.576469749212265015e-02
1.207851991057395935e-02
-2.679441869258880615e-02
-1.462916471064090729e-02
-5.500068422406911850e-03
-5.764684081077575684e-02
-2.958028391003608704e-02
-6.710631400346755981e-02
1.627186662517488003e-03
-3.034166060388088226e-02
-5.121339112520217896e-02
-4.825057461857795715e-02
-6.515545397996902466e-02
2.288917079567909241e-02
-4.616449400782585144e-02
6.514477729797363281e-02
-4.290352016687393188e-02
4.482829198241233826e-02
-1.489868015050888062e-02
-6.574425101280212402e-02
2.797901630401611328e-02
4.667428322136402130e-03
-2.588278055191040039e-02
3.607749193906784058e-02
-1.465977053157985210e-03
-6.044133752584457397e-02
5.613280832767486572e-02
-6.091073155403137207e-02
-2.949960157275199890e-02
1.885115541517734528e-02
-2.758606337010860443e-02
-4.143757000565528870e-02
6.197526678442955017e-02
1.661396957933902740e-02
-3.920613974332809448e-02
-5.111912637948989868e-02
3.690354153513908386e-02
2.426294377073645592e-03
-4.957390204071998596e-02
5.496560409665107727e-02
1.754819788038730621e-02
7.036560773849487305e-02
1.505594141781330109e-02
6.399096455425024033e-03
-2.762592397630214691e-02
6.577794253826141357e-02
-5.565967038273811340e-02
3.441520780324935913e-02
-4.405307397246360779e-02
1.328659988939762115e-02
5.217438563704490662e-02
-8.410644717514514923e-03
5.807885900139808655e-02
-1.393645629286766052e-02
-5.424081906676292419e-02
-2.079956466332077980e-04
4.822182655334472656e-02
5.663303658366203308e-02
-6.696661561727523804e-02
4.755934700369834900e-02
4.225182905793190002e-02
2.792990766465663910e-02
-4.338271543383598328e-02
4.674725234508514404e-02
-3.857393935322761536e-02
-1.050124956236686558e-05
2.644857391715049744e-02
-3.919893503189086914e-02
-4.712659283541142941e-04
-2.722286432981491089e-02
-5.137223750352859497e-02
5.725846812129020691e-02
4.321026429533958435e-02
4.787517711520195007e-02
1.988735422492027283e-02
6.135866418480873108e-02
-4.650375805795192719e-03
-3.723933175206184387e-02
-3.441074118018150330e-02
1.028668321669101715e-02
-2.360192872583866119e-02
-4.977666214108467102e-02
5.450421571731567383e-02
2.253998070955276489e-02
-3.192576812580227852e-03
4.389130510389804840e-03
-3.319897456094622612e-03
5.017446819692850113e-03
-6.857455708086490631e-03
-8.140910416841506958e-03
-2.891337312757968903e-02
5.933776870369911194e-02
3.448248282074928284e-02
4.966967552900314331e-02
3.786399215459823608e-02
-6.972572952508926392e-02
5.729301646351814270e-02
-3.632825240492820740e-02
-6.114847958087921143e-02
2.314217761158943176e-02
-4.794111847877502441e-02
-3.201066330075263977e-02
6.799346953630447388e-02
6.549728661775588989e-02
-3.022426739335060120e-02
-6.786677241325378418e-02
-5.683662369847297668e-02
6.034306436777114868e-02
-2.311877720057964325e-02
4.750829562544822693e-02
4.983765631914138794e-02
6.975141912698745728e-02
-5.109099671244621277e-02
6.066061928868293762e-02
-1.152561977505683899e-02
4.947988688945770264e-02
-3.600221127271652222e-02
-3.545064106583595276e-02
-1.450656726956367493e-02
-3.368492797017097473e-02
3.948232159018516541e-02
5.573812872171401978e-02
1.740447059273719788e-02
-4.864088073372840881e-02
-2.084243483841419220e-02
4.999409988522529602e-02
6.120655313134193420e-02
-2.761036157608032227e-02
2.557308785617351532e-02
1.033211126923561096e-02
-5.161843728274106979e-03
-4.106071963906288147e-02
5.742165073752403259e-02
-2.461832948029041290e-02
-1.191892009228467941e-02
-6.413876079022884369e-03
-4.260831698775291443e-02
3.765003755688667297e-02
-5.239674076437950134e-02
-1.490504574030637741e-02
4.491157829761505127e-02
4.623758792877197266e-02
6.410290300846099854e-02
-1.957737281918525696e-02
6.379696726799011230e-02
