4.931674897670745850e-02
4.453402012586593628e-02
-7.020277529954910278e-02
6.279119104146957397e-02
6.994163244962692261e-02
-4.631982184946537018e-03
-5.441387742757797241e-02
2.683004736900329590e-02
4.252774175256490707e-03
-6.028176471590995789e-02
-6.827307492494583130e-02
-4.747935011982917786e-02
-5.954673141241073608e-02
-7.686024997383356094e-03
-3.168057650327682495e-02
2.372444234788417816e-02
4.518474638462066650e-02
4.743298888206481934e-02
-4.825017601251602173e-02
9.051374159753322601e-03
2.126794494688510895e-02
-1.365700829774141312e-02
8.249144069850444794e-03
-2.366099040955305099e-03
5.014492571353912354e-02
4.902248457074165344e-02
1.834779046475887299e-02
-4.637457057833671570e-02
-7.038030773401260376e-02
1.893585361540317535e-02
4.953406751155853271e-02
5.296827480196952820e-02
6.162809953093528748e-02
-2.898442326113581657e-03
-2.268443256616592407e-02
-2.508270181715488434e-02
-3.347937390208244324e-02
6.245327368378639221e-02
5.856965109705924988e-02
1.545734470710158348e-03
1.878968439996242523e-02
1.414641272276639938e-02
3.993410989642143250e-02
1.482025254517793655e-02
2.731949836015701294e-02
1.070903614163398743e-02
-6.405841093510389328e-03
-6.694015115499496460e-02
-2.446890063583850861e-02
5.672773346304893494e-02
6.113338842988014221e-02
-7.020312547683715820e-02
-6.313913315534591675e-02
-4.988007247447967529e-02
-5.979480221867561340e-02
-7.782608270645141602e-03
4.866052046418190002e-02
-2.163432352244853973e-02
5.793784931302070618e-02
-5.895265564322471619e-02
7.183479145169258118e-03
-3.046220541000366211e-02
2.154939621686935425e-02
-3.491110354661941528e-02
6.997618079185485840e-02
-5.741063877940177917e-02
4.482699185609817505e-02
-4.117638617753982544e-02
-3.325477987527847290e-02
6.614091247320175171e-02
3.947329148650169373e-02
1.899373531341552734e-02
6.182872503995895386e-02
1.738323643803596497e-02
6.253250688314437866e-02
-6.267713010311126709e-02
3.735487163066864014e-02
2.634394727647304535e-02
-3.772408887743949890e-02
-5.076696351170539856e-02
1.169689837843179703e-02
4.804573953151702881e-02
-1.964826323091983795e-02
-3.266884014010429382e-02
4.395665600895881653e-02
-6.255050003528594971e-02
2.606939710676670074e-02
3.841923549771308899e-02
-7.564252708107233047e-03
-3.272454440593719482e-02
-4.101547598838806152e-02
-5.866536498069763184e-02
-7.090659812092781067e-03
-6.726140528917312622e-02
5.907338485121726990e-02
6.896523386240005493e-02
3.596874326467514038e-02
-4.902075603604316711e-02
-4.033060371875762939e-02
7.057077437639236450e-02
6.252543069422245026e-03
6.292353849858045578e-03
5.334814637899398804e-02
-5.154569447040557861e-02
-5.899420753121376038e-02
-3.201466053724288940e-02
-1.631840481422841549e-03
-1.166854333132505417e-02
-4.902194812893867493e-02
-2.745314314961433411e-02
1.995186507701873779e-02
-5.900937691330909729e-02
-5.807733163237571716e-03
3.190334513783454895e-02
-5.485571175813674927e-02
-1.490150019526481628e-02
3.519963845610618591e-02
-4.277400672435760498e-02
1.586188189685344696e-02
-5.987577885389328003e-02
2.704314887523651123e-02
-1.909905299544334412e-02
-1.761954918038100004e-04
1.478251162916421890e-02
6.421095877885818481e-02
-4.726166650652885437e-02
-6.691737566143274307e-03
-1.554819103330373764e-02
-6.924132257699966431e-02
2.069193869829177856e-02
6.800804752856492996e-03
-2.405301667749881744e-02
6.736740469932556152e-03
-4.125952546019107103e-05
5.690145120024681091e-02
-5.941502377390861511e-02
3.699914366006851196e-02
-6.404854357242584229e-02
-5.230672657489776611e-02
3.955175727605819702e-02
-6.609740108251571655e-02
6.047451868653297424e-02
-6.474031507968902588e-02
-1.139726839028298855e-03
-3.151193633675575256e-02
-4.091624915599822998e-02
2.035723812878131866e-02
-6.973803043365478516e-02
-4.453650861978530884e-02
4.443185403943061829e-02
-5.704629421234130859e-02
5.536463111639022827e-02
5.768611654639244080e-02
-1.543006580322980881e-02
6.621214002370834351e-02
-1.392666622996330261e-02
-3.819622471928596497e-02
2.465124055743217468e-02
5.712735280394554138e-02
2.872317284345626831e-02
-7.260379381477832794e-03
-5.052279680967330933e-02
-1.568902097642421722e-02
-2.405621297657489777e-02
-4.603013396263122559e-02
3.176443651318550110e-02
7.885362952947616577e-03
6.122782081365585327e-02
3.135263547301292419e-02
2.665276266634464264e-02
2.244237251579761505e-02
-1.251273136585950851e-02
1.507905963808298111e-02
5.599559471011161804e-02
4.313356429338455200e-02
-2.471113763749599457e-02
7.659539580345153809e-03
-4.167677834630012512e-02
-4.154985398054122925e-02
-4.896300286054611206e-02
-4.986452683806419373e-02
-5.059293285012245178e-02
1.907150819897651672e-02
7.523929234594106674e-04
-4.075566306710243225e-02
-5.731761828064918518e-02
-3.928485885262489319e-02
-2.157473750412464142e-02
-1.587750576436519623e-02
-6.542707234621047974e-02
6.356789916753768921e-02
4.817542433738708496e-02
-5.209073424339294434e-03
1.431975513696670532e-02
-3.255600482225418091e-02
-6.729693152010440826e-03
3.012354020029306412e-03
-6.674512475728988647e-02
4.264874756336212158e-02
-6.560833193361759186e-03
