-9.361748397350311279e-02
-9.707566350698471069e-02
-2.041225135326385498e-01
-5.148497223854064941e-02
-2.959930598735809326e-01
2.352504432201385498e-01
-1.211998611688613892e-02
1.468332558870315552e-01
3.216433525085449219e-01
-8.083889633417129517e-02
2.740729451179504395e-01
-1.318355500698089600e-01
-1.850072890520095825e-01
1.815101206302642822e-01
1.319081634283065796e-01
-4.937746375799179077e-02
-1.211472600698471069e-01
-1.021621152758598328e-01
-1.835285574197769165e-01
-1.648383289575576782e-01
-2.516292333602905273e-01
-2.038814872503280640e-01
2.329496443271636963e-01
-2.929165661334991455e-01
-6.336268270388245583e-04
-1.863877922296524048e-01
-2.994961142539978027e-01
-2.345953285694122314e-01
2.749948799610137939e-01
9.330309182405471802e-02
-1.634267121553421021e-01
2.309691011905670166e-01
-3.104361593723297119e-01
-3.525560498237609863e-01
1.807078570127487183e-01
-3.747701412066817284e-04
5.298905447125434875e-02
-3.394039869308471680e-01
1.141724083572626114e-02
-3.090136125683784485e-02
2.626705467700958252e-01
-3.765914216637611389e-02
-1.766465604305267334e-02
-1.514000445604324341e-01
5.687203258275985718e-02
-2.996099889278411865e-01
2.991039119660854340e-02
-2.559121139347553253e-02
-3.059501647949218750e-01
-3.162789940834045410e-01
-2.652691304683685303e-01
1.885901950299739838e-02
-3.093663454055786133e-01
-1.113387197256088257e-01
-2.161264270544052124e-01
-7.904532551765441895e-02
-3.393588364124298096e-01
-5.639293789863586426e-02
-2.199211865663528442e-01
2.361009865999221802e-01
2.662321925163269043e-01
2.472190856933593750e-01
8.470606058835983276e-03
-7.473397254943847656e-02
-2.704686224460601807e-01
-2.998972237110137939e-01
-2.402782738208770752e-01
-1.843009740114212036e-01
4.247827455401420593e-02
1.792916655540466309e-01
1.859692037105560303e-01
-4.740699753165245056e-02
1.499955914914608002e-02
-3.367506265640258789e-01
3.316595852375030518e-01
2.930242419242858887e-01
-2.302779555320739746e-01
2.161338478326797485e-01
3.182202279567718506e-01
-1.343551576137542725e-01
2.831464409828186035e-01
2.364822924137115479e-01
1.654542982578277588e-01
2.311547547578811646e-01
-2.800628542900085449e-01
-1.502828896045684814e-01
-3.524271845817565918e-01
2.321890145540237427e-01
-2.321711778640747070e-01
-2.500481903553009033e-01
8.637174963951110840e-02
2.856751382350921631e-01
3.515172004699707031e-01
1.192056611180305481e-01
1.910079419612884521e-01
-2.972421348094940186e-01
-1.983313560485839844e-01
1.945428103208541870e-01
-3.312112689018249512e-01
-6.775201857089996338e-02
-3.509374335408210754e-02
-1.760875433683395386e-01
-3.052307665348052979e-01
-1.747564077377319336e-01
-3.391143083572387695e-01
-2.879561185836791992e-01
-2.506200596690177917e-02
-2.194851189851760864e-01
1.679880172014236450e-01
-3.108223527669906616e-02
1.539706885814666748e-01
-3.526474833488464355e-01
7.498257607221603394e-02
-3.092435896396636963e-01
2.900435328483581543e-01
-3.114534318447113037e-01
-3.034731447696685791e-01
-1.909930557012557983e-01
6.439608335494995117e-02
3.080182671546936035e-01
-1.500895917415618896e-01
3.210415840148925781e-01
2.813419401645660400e-01
3.270472288131713867e-01
-5.911630112677812576e-03
3.326250910758972168e-01
7.750634849071502686e-02
1.753522753715515137e-01
-3.065565526485443115e-01
1.428114622831344604e-01
-4.935947805643081665e-02
1.641313731670379639e-01
-1.012437939643859863e-01
1.920625269412994385e-01
-2.974382601678371429e-02
3.500710129737854004e-01
-3.373273015022277832e-01
2.759626507759094238e-01
1.995856314897537231e-01
-2.448303699493408203e-01
1.056512072682380676e-01
3.177136480808258057e-01
8.877768367528915405e-02
-7.019889354705810547e-02
-2.176829129457473755e-01
-3.377048969268798828e-01
1.100724264979362488e-01
-2.533670961856842041e-01
-8.918789774179458618e-02
-6.942013651132583618e-02
-1.999803632497787476e-01
2.749865688383579254e-02
-2.837945520877838135e-01
8.620622754096984863e-02
-2.665562033653259277e-01
-9.140587411820888519e-03
-3.434628248214721680e-01
-5.371639505028724670e-03
-3.292950093746185303e-01
1.110576987266540527e-01
2.659244462847709656e-02
5.894545093178749084e-02
3.771076500415802002e-01
-2.475175261497497559e-01
-2.858225107192993164e-01
-2.924917638301849365e-01
-3.454157412052154541e-01
1.536453962326049805e-01
-1.767076849937438965e-01
1.342274844646453857e-01
9.607660770416259766e-02
-1.867931336164474487e-01
-1.992195099592208862e-01
9.237255901098251343e-03
-4.128595441579818726e-02
2.597141861915588379e-01
-3.117688000202178955e-01
3.701902329921722412e-01
-2.239534258842468262e-01
1.181202530860900879e-01
1.399573870003223419e-02
1.821988672018051147e-01
-7.101871073246002197e-02
-1.793146580457687378e-01
-2.931967079639434814e-01
1.076021715998649597e-01
-3.337551280856132507e-02
3.476324677467346191e-01
2.295269221067428589e-01
-1.560985743999481201e-01
-2.768435776233673096e-01
-1.833706349134445190e-01
1.555456370115280151e-01
-2.181928753852844238e-01
2.640975713729858398e-01
2.429692894220352173e-01
-3.727750182151794434e-01
1.270364671945571899e-01
-1.757948696613311768e-01
3.718564659357070923e-02
