-1.724030971527099609e-01
-3.252481520175933838e-01
1.295910328626632690e-01
3.575746417045593262e-01
1.757594645023345947e-01
-2.789263725280761719e-01
2.980580627918243408e-01
-3.249835669994354248e-01
-3.763372004032135010e-01
-1.850523352622985840e-01
3.314704895019531250e-01
2.098999619483947754e-01
3.106476068496704102e-01
1.147954389452934265e-01
-1.390775293111801147e-01
2.097144722938537598e-01
2.038061320781707764e-01
1.971702426671981812e-01
-7.227214425802230835e-02
-7.073187083005905151e-02
-2.846443355083465576e-01
2.427137792110443115e-01
-1.293320059776306152e-01
5.829230323433876038e-02
-6.686121970415115356e-02
-1.055216342210769653e-01
-3.561346977949142456e-02
3.690745830535888672e-01
1.750927120447158813e-01
-1.891881227493286133e-01
2.816011309623718262e-01
2.177188098430633545e-01
2.940623164176940918e-01
-2.293635457754135132e-01
1.906297206878662109e-01
8.362502604722976685e-02
2.364934235811233521e-01
1.624532938003540039e-01
-2.262632250785827637e-01
-2.425811886787414551e-01
7.010300178080797195e-03
-3.612112700939178467e-01
2.174388915300369263e-01
3.694219589233398438e-01
2.195230871438980103e-01
-1.267827600240707397e-01
8.448158204555511475e-02
-1.316814720630645752e-01
2.864691615104675293e-01
-1.586972475051879883e-01
2.877616584300994873e-01
1.728920638561248779e-01
3.298749625682830811e-01
-1.400982141494750977e-01
3.672283887863159180e-01
1.842723786830902100e-01
3.513638973236083984e-01
-2.195551395416259766e-01
3.129812180995941162e-01
2.398222833871841431e-01
-7.473704963922500610e-02
3.644427955150604248e-01
9.229587018489837646e-02
1.204314306378364563e-01
-1.486637629568576813e-02
-2.302106320858001709e-01
1.154106259346008301e-01
1.450224220752716064e-01
-2.792275547981262207e-01
-1.877661794424057007e-01
-8.120803534984588623e-02
-1.778669804334640503e-01
1.911970525979995728e-01
-3.520056009292602539e-01
-9.602901339530944824e-02
-2.126285731792449951e-01
6.802156567573547363e-02
2.852300107479095459e-01
-3.067089021205902100e-01
-9.127624332904815674e-02
-1.899057626724243164e-01
3.322021365165710449e-01
-3.092143535614013672e-01
-8.309736847877502441e-02
3.491959348320960999e-02
-2.933930754661560059e-01
1.979394704103469849e-01
-2.587254643440246582e-01
1.914096437394618988e-02
2.038898766040802002e-01
-1.181370466947555542e-01
3.403351604938507080e-01
2.030635327100753784e-01
-2.723045647144317627e-01
-3.380094468593597412e-02
-1.296617537736892700e-01
2.080440893769264221e-02
-3.258264064788818359e-01
-2.056170403957366943e-01
2.007482200860977173e-01
1.890757530927658081e-01
-6.201801449060440063e-02
6.443016463890671730e-04
9.549246728420257568e-02
1.920524090528488159e-01
4.662853106856346130e-02
3.707732260227203369e-01
-2.091674804687500000e-01
3.522709906101226807e-01
2.286052107810974121e-01
-3.598190844058990479e-01
7.416148483753204346e-02
8.140351623296737671e-03
3.525774776935577393e-01
1.878645420074462891e-01
2.711858451366424561e-01
6.562046706676483154e-02
-4.697805270552635193e-02
2.183012664318084717e-01
2.014718502759933472e-01
1.479168236255645752e-01
1.909040510654449463e-01
-1.149408146739006042e-01
1.432772427797317505e-01
-1.019613146781921387e-01
-2.563617229461669922e-01
-9.705463424324989319e-03
-6.566690653562545776e-02
-5.805835127830505371e-03
2.891257405281066895e-01
1.457823365926742554e-01
1.636166721582412720e-01
-2.137075066566467285e-01
-4.926185309886932373e-02
1.781289577484130859e-01
2.381625026464462280e-01
-2.508362531661987305e-01
1.069518104195594788e-01
3.430934250354766846e-01
2.586353123188018799e-01
-1.833093762397766113e-01
-5.275204777717590332e-02
3.197288811206817627e-01
-3.719176352024078369e-01
-2.454706728458404541e-01
6.876693665981292725e-02
3.472429215908050537e-01
-2.225213348865509033e-01
-7.313102483749389648e-02
-2.994130849838256836e-01
-3.015424311161041260e-01
3.498541712760925293e-01
1.079119369387626648e-01
-1.606396287679672241e-01
1.093761622905731201e-01
-6.982601433992385864e-02
5.089726671576499939e-02
2.130586057901382446e-01
-4.373276233673095703e-02
1.553974747657775879e-01
3.035963475704193115e-01
-9.987311810255050659e-02
1.519601792097091675e-01
-2.380379140377044678e-01
-1.381686478853225708e-01
-3.206093609333038330e-01
-1.883672773838043213e-01
1.896098405122756958e-01
3.145980089902877808e-02
-5.927682388573884964e-03
2.473681867122650146e-01
-2.630272507667541504e-01
-3.051429986953735352e-01
3.417428433895111084e-01
-3.013471961021423340e-01
3.767873942852020264e-01
2.205733060836791992e-01
2.536388337612152100e-01
-8.261391520500183105e-02
-3.167284131050109863e-01
-2.853339314460754395e-01
1.527023315429687500e-01
5.263041332364082336e-02
1.052031014114618301e-02
-3.592854142189025879e-01
1.331368386745452881e-01
-2.675992250442504883e-01
-7.689679414033889771e-02
2.977643609046936035e-01
1.286492198705673218e-01
-3.497602343559265137e-01
2.289060950279235840e-01
2.495100349187850952e-01
7.480396330356597900e-02
1.536766886711120605e-01
3.130195289850234985e-02
-3.521723300218582153e-02
1.601904481649398804e-01
3.362801969051361084e-01
-1.689873188734054565e-01
