2.153920941054821014e-02
-4.279276763554662466e-04
-6.662122905254364014e-02
4.728010296821594238e-02
-3.917361609637737274e-03
-2.379595115780830383e-02
2.606210485100746155e-02
-4.709710180759429932e-02
-6.088706851005554199e-02
5.846054852008819580e-02
6.308232247829437256e-02
-3.709610179066658020e-02
-2.944292500615119934e-02
3.436184301972389221e-02
-4.487756267189979553e-02
-3.200067207217216492e-02
-4.078004136681556702e-02
3.828105702996253967e-02
-1.441631000488996506e-02
1.700662821531295776e-02
-5.065575987100601196e-02
2.215716615319252014e-02
2.937129512429237366e-02
-2.790779573842883110e-03
-1.445275265723466873e-02
-5.632970482110977173e-02
1.930443756282329559e-02
6.237842887639999390e-02
-5.786034464836120605e-02
4.500129073858261108e-02
5.332092940807342529e-02
-1.374364271759986877e-02
-4.250296577811241150e-02
-5.255244206637144089e-03
1.054620929062366486e-02
4.239846765995025635e-02
-2.417172119021415710e-02
1.173096057027578354e-02
6.554958969354629517e-02
-7.008972577750682831e-03
-3.428266942501068115e-02
-1.022948231548070908e-02
4.268404468894004822e-02
-4.622275009751319885e-02
2.831186912953853607e-02
-3.927278891205787659e-02
-7.391314953565597534e-02
3.466310724616050720e-02
-2.455684728920459747e-02
1.350258104503154755e-02
-5.675131082534790039e-02
3.556895628571510315e-02
-3.810325637459754944e-02
-7.978482171893119812e-03
1.118745747953653336e-02
-4.457017406821250916e-02
-4.393127188086509705e-02
-6.796410679817199707e-02
-4.278061911463737488e-02
7.059014588594436646e-02
-4.092661663889884949e-02
4.065612703561782837e-02
3.936777822673320770e-03
5.398407205939292908e-02
-6.341148167848587036e-02
2.577019669115543365e-02
4.861539974808692932e-02
3.705321997404098511e-02
-1.934947445988655090e-02
3.653262928128242493e-02
9.389185346662998199e-03
-1.242814213037490845e-02
5.467545613646507263e-02
-2.384047582745552063e-02
-2.609758812468498945e-04
3.636695817112922668e-02
1.733183301985263824e-02
4.541257768869400024e-02
1.014537643641233444e-02
2.516833879053592682e-02
-6.364397704601287842e-02
6.887602806091308594e-02
-2.138067409396171570e-02
8.084432221949100494e-03
5.068548023700714111e-02
-3.296645008958876133e-04
1.166133116930723190e-02
-4.923048987984657288e-02
5.922483280301094055e-03
5.329231172800064087e-02
6.082276254892349243e-02
7.776632905006408691e-02
4.930749069899320602e-03
3.494536876678466797e-02
5.002621188759803772e-02
2.010348625481128693e-02
6.766396015882492065e-02
5.112133920192718506e-02
-4.104192182421684265e-02
-3.124303370714187622e-02
-2.775822393596172333e-02
5.992276221513748169e-02
-5.778602883219718933e-02
5.028685554862022400e-02
-1.128671970218420029e-02
4.042317718267440796e-02
-6.946153473109006882e-03
4.394331574440002441e-02
5.653957650065422058e-02
6.455327570438385010e-02
-2.343203639611601830e-03
-8.117517456412315369e-03
5.569360032677650452e-02
-1.529539702460169792e-03
9.421668946743011475e-03
3.764961287379264832e-02
5.949162691831588745e-02
4.202966764569282532e-02
-2.307222411036491394e-02
-6.605541706085205078e-02
3.623436763882637024e-02
1.096073351800441742e-02
5.678292363882064819e-02
-7.172404788434505463e-03
7.050129771232604980e-02
-5.866630002856254578e-02
-6.118783354759216309e-02
-5.022555217146873474e-02
5.843630805611610413e-02
-1.598486490547657013e-02
2.321952488273382187e-03
7.039696723222732544e-02
2.982761897146701813e-02
-6.419387459754943848e-02
-6.073952466249465942e-02
2.131915837526321411e-02
2.598171494901180267e-02
-4.076784534845501184e-04
-6.190645322203636169e-02
-5.899331718683242798e-02
7.098703831434249878e-02
-1.756845414638519287e-02
-5.482862517237663269e-02
-5.205223336815834045e-02
5.673506855964660645e-02
6.226473301649093628e-02
-4.175806883722543716e-03
-5.420809239149093628e-02
-4.763606935739517212e-02
6.185141205787658691e-02
3.610060736536979675e-02
-1.435325946658849716e-02
4.781296104192733765e-02
-9.645236656069755554e-03
5.174541845917701721e-02
-3.649910539388656616e-02
1.007520221173763275e-02
-3.349388763308525085e-02
5.844994634389877319e-02
4.011295363306999207e-02
-2.645313367247581482e-02
3.081044554710388184e-02
-6.093226745724678040e-02
3.909939900040626526e-02
-3.997987881302833557e-02
7.161845266819000244e-02
5.091527476906776428e-02
2.483906038105487823e-02
7.204373925924301147e-02
5.987478420138359070e-02
-5.384367331862449646e-02
3.696836158633232117e-02
-2.767617814242839813e-02
-4.181635752320289612e-02
2.249739877879619598e-02
-1.275506056845188141e-02
-8.218433707952499390e-03
6.490583717823028564e-02
4.443404823541641235e-02
-6.466155499219894409e-02
6.609378755092620850e-02
-4.709203168749809265e-02
-3.085337579250335693e-02
2.097900025546550751e-02
-7.207291573286056519e-02
5.421145632863044739e-02
1.069550309330224991e-02
-1.197949983179569244e-03
-5.303322523832321167e-02
4.180992394685745239e-02
3.775228932499885559e-02
4.609998688101768494e-02
2.764803916215896606e-02
2.831096202135086060e-02
-4.410303011536598206e-02
-4.846042953431606293e-03
1.690778322517871857e-02
-6.149458512663841248e-02
-5.787330865859985352e-02
5.789495632052421570e-02
